{"learner":{"attributes":{"best_iteration":"49","best_score":"6.643979675718947"},"feature_names":[],"feature_types":[],"gradient_booster":{"model":{"gbtree_model_param":{"num_parallel_tree":"1","num_trees":"50"},"iteration_indptr":[0,1,2,3,4,5,6,7,8,9,10,11,12,13,14,15,16,17,18,19,20,21,22,23,24,25,26,27,28,29,30,31,32,33,34,35,36,37,38,39,40,41,42,43,44,45,46,47,48,49,50],"tree_info":[0,0,0,0,0,0,0,0,0,0,0,0,0,0,0,0,0,0,0,0,0,0,0,0,0,0,0,0,0,0,0,0,0,0,0,0,0,0,0,0,0,0,0,0,0,0,0,0,0,0],"trees":[{"base_weights":[-6.64123E-7,-5.9820046E0,1.10243E1,-8.707176E0,-1.5033174E0,6.7691503E0,2.0255936E1,-1.1864008E0,-9.220981E0,-3.3958857E0,3.959015E-1,4.2519016E0,9.212613E0,1.7127035E1,2.4687801E1,-8.840653E0,-5.925157E-1,-1.1361792E1,-7.4278536E0,-4.3159714E0,-2.6050658E0,-7.3240465E-1,1.1702503E0,-2.7263875E0,4.3777995E0,8.19174E0,1.14543295E1,1.5112787E1,1.9386387E1,2.2578524E1,2.6176954E1,-8.722091E0,-3.2791215E-1,-1.2409493E1,-1.0272618E1,-8.527679E0,-6.2584195E0,1.1274227E1,-4.325961E0,7.255231E0,-2.6267803E0,1.2044228E1,-7.4350727E-1,5.7456535E-1,1.8210049E0,-4.6779284E0,-1.9795236E-1,-2.114396E0,4.4829845E0,-4.0524716E0,8.237928E0,1.4296781E1,1.1348636E1,1.3937631E1,1.603058E1,7.848489E0,1.9499687E1,-2.355774E0,2.2600105E1,-4.2010317E0,2.6214005E1,-8.293856E0,-4.0302992E-2,-7.852074E0,-7.0800724E0,-6.5398674E0,-5.99892E0,-5.3459167E0,-4.726528E0,-4.1431575E0,-3.4767525E0,6.1313396E0,-2.6032867E0,-1.0457737E0,4.9976077E0,1.1854225E1,-1.5812558E0,-2.6947923E0,-4.1189158E-1,6.795817E0,3.2847098E-1,-3.7752008E0,1.1227294E0,-3.246259E0,-2.3906996E0,-3.1103867E-1,1.3861461E0,3.644388E0,-1.5195662E0,2.2124207E0,3.0828416E0,-2.5932193E0,6.442263E-1,1.3578544E1,4.918158E0,6.4403224E0,7.3644757E0,1.4777044E1,8.320749E0,-3.325774E0,9.629783E0,4.2122297E0,1.1731759E1,-8.5577375E-1,1.3570903E1,1.5158481E1,1.6468231E1],"categories":[],"categories_nodes":[],"categories_segments":[],"categories_sizes":[],"default_left":[0,0,0,0,0,0,0,0,0,0,0,0,0,0,0,0,0,0,0,0,0,0,0,0,0,0,0,0,0,0,0,0,0,0,0,0,0,0,0,0,0,0,0,0,0,0,0,0,0,0,0,0,0,0,0,0,0,0,0,0,0,0,0,0,0,0,0,0,0,0,0,0,0,0,0,0,0,0,0,0,0,0,0,0,0,0,0,0,0,0,0,0,0,0,0,0,0,0,0,0,0,0,0,0,0,0,0],"id":0,"left_children":[1,3,5,7,9,11,13,15,17,19,21,23,25,27,29,-1,31,33,35,37,39,41,43,45,47,49,51,53,55,57,59,-1,61,63,65,67,69,-1,71,73,75,-1,77,79,81,83,85,87,89,91,93,-1,95,97,99,-1,101,-1,103,-1,105,-1,-1,-1,-1,-1,-1,-1,-1,-1,-1,-1,-1,-1,-1,-1,-1,-1,-1,-1,-1,-1,-1,-1,-1,-1,-1,-1,-1,-1,-1,-1,-1,-1,-1,-1,-1,-1,-1,-1,-1,-1,-1,-1,-1,-1,-1],"loss_changes":[4.874173E6,5.84762E5,1.02111625E6,1.15092E5,6.5153465E4,1.0942675E5,1.1331325E5,1.5326884E4,1.0694775E5,6.594836E3,7.906118E3,7.7150938E3,2.0571375E4,2.1601375E4,1.006325E4,0E0,6.7363364E3,1.4372875E4,1.9465562E4,1.0496016E3,1.0649922E3,8.657064E2,2.0790542E3,7.688319E2,5.891125E3,3.5441875E3,3.4215625E3,2.52475E3,1.362375E3,8.95875E2,2.62E3,0E0,6.3116904E3,2.51675E3,9.6425E2,1.8723125E3,2.167875E3,0E0,8.281875E2,1.2083356E2,9.9553516E2,0E0,7.8377893E2,8.1093384E2,1.0562451E3,2.3140747E1,5.6655666E1,4.87963E2,4.3987188E3,3.78042E1,3.4641562E3,0E0,1.4619062E3,4.9692188E2,6.7434375E2,0E0,1.3390625E3,0E0,6.441875E2,0E0,1.625625E3,0E0,0E0,0E0,0E0,0E0,0E0,0E0,0E0,0E0,0E0,0E0,0E0,0E0,0E0,0E0,0E0,0E0,0E0,0E0,0E0,0E0,0E0,0E0,0E0,0E0,0E0,0E0,0E0,0E0,0E0,0E0,0E0,0E0,0E0,0E0,0E0,0E0,0E0,0E0,0E0,0E0,0E0,0E0,0E0,0E0,0E0],"parents":[2147483647,0,0,1,1,2,2,3,3,4,4,5,5,6,6,7,7,8,8,9,9,10,10,11,11,12,12,13,13,14,14,16,16,17,17,18,18,19,19,20,20,21,21,22,22,23,23,24,24,25,25,26,26,27,27,28,28,29,29,30,30,32,32,33,33,34,34,35,35,36,36,38,38,39,39,40,40,42,42,43,43,44,44,45,45,46,46,47,47,48,48,49,49,50,50,52,52,53,53,54,54,56,56,58,58,60,60],"right_children":[2,4,6,8,10,12,14,16,18,20,22,24,26,28,30,-1,32,34,36,38,40,42,44,46,48,50,52,54,56,58,60,-1,62,64,66,68,70,-1,72,74,76,-1,78,80,82,84,86,88,90,92,94,-1,96,98,100,-1,102,-1,104,-1,106,-1,-1,-1,-1,-1,-1,-1,-1,-1,-1,-1,-1,-1,-1,-1,-1,-1,-1,-1,-1,-1,-1,-1,-1,-1,-1,-1,-1,-1,-1,-1,-1,-1,-1,-1,-1,-1,-1,-1,-1,-1,-1,-1,-1,-1,-1],"split_conditions":[4.03E0,2.01E0,1.039E1,2E-1,2.81E0,6.03E0,1.588E1,2.00001E0,1.16E0,2.34E0,3.24E0,2.00001E0,8.49E0,1.286E1,1.855E1,-8.840653E0,2.00001E0,8.3E-1,1.55E0,2.00001E0,2.00001E0,2.00001E0,3.61E0,4.88E0,2.00001E0,2.00001E0,2.00001E0,1.139E1,2.00001E0,2.00001E0,2.00001E0,-8.722091E0,2.00001E0,6.1E-1,9.3E-1,1.4E0,1.73E0,1.1274227E1,2.00001E0,2.6E0,2.00001E0,1.2044228E1,2.00001E0,2.00001E0,2.00001E0,4.61E0,5.48E0,4.68E0,4.8E0,6.99E0,2.00001E0,1.4296781E1,9.52E0,2.00001E0,2.00001E0,7.848489E0,2.00001E0,-2.355774E0,2.00001E0,-4.2010317E0,2.25E1,-8.293856E0,-4.0302992E-2,-7.852074E0,-7.0800724E0,-6.5398674E0,-5.99892E0,-5.3459167E0,-4.726528E0,-4.1431575E0,-3.4767525E0,6.1313396E0,-2.6032867E0,-1.0457737E0,4.9976077E0,1.1854225E1,-1.5812558E0,-2.6947923E0,-4.1189158E-1,6.795817E0,3.2847098E-1,-3.7752008E0,1.1227294E0,-3.246259E0,-2.3906996E0,-3.1103867E-1,1.3861461E0,3.644388E0,-1.5195662E0,2.2124207E0,3.0828416E0,-2.5932193E0,6.442263E-1,1.3578544E1,4.918158E0,6.4403224E0,7.3644757E0,1.4777044E1,8.320749E0,-3.325774E0,9.629783E0,4.2122297E0,1.1731759E1,-8.5577375E-1,1.3570903E1,1.5158481E1,1.6468231E1],"split_indices":[13220,13220,13220,13220,13220,13220,13220,4470,13220,13220,13220,7213,13220,13220,13220,0,1142,13220,13220,7088,3585,8427,13220,13220,7214,11281,10838,13220,4725,10595,10204,0,9316,13220,13220,13220,13220,0,6208,13220,5488,0,7159,6922,7197,13220,13220,13220,13220,13220,8636,0,13220,11304,11402,0,2159,0,970,0,13220,0,0,0,0,0,0,0,0,0,0,0,0,0,0,0,0,0,0,0,0,0,0,0,0,0,0,0,0,0,0,0,0,0,0,0,0,0,0,0,0,0,0,0,0,0,0],"split_type":[0,0,0,0,0,0,0,0,0,0,0,0,0,0,0,0,0,0,0,0,0,0,0,0,0,0,0,0,0,0,0,0,0,0,0,0,0,0,0,0,0,0,0,0,0,0,0,0,0,0,0,0,0,0,0,0,0,0,0,0,0,0,0,0,0,0,0,0,0,0,0,0,0,0,0,0,0,0,0,0,0,0,0,0,0,0,0,0,0,0,0,0,0,0,0,0,0,0,0,0,0,0,0,0,0,0,0],"sum_hessian":[7.3908E4,4.7911E4,2.5997E4,2.9786E4,1.8125E4,1.7796E4,8.201E3,1.905E3,2.7881E4,9.078E3,9.047E3,8.767E3,9.029E3,4.81E3,3.391E3,7.9E1,1.826E3,1.2706E4,1.5175E4,4.194E3,4.884E3,3.682E3,5.365E3,1.55E2,8.612E3,6.207E3,2.822E3,2.547E3,2.263E3,1.41E3,1.981E3,3.3E1,1.793E3,6.471E3,6.235E3,7.817E3,7.358E3,1E0,4.193E3,1E1,4.874E3,1E0,3.681E3,2.802E3,2.563E3,8.7E1,6.8E1,1.37E2,8.475E3,2.3E1,6.184E3,2.2E1,2.8E3,1.124E3,1.423E3,4.2E1,2.221E3,1E0,1.409E3,2E0,1.979E3,3.3E1,1.76E3,3.055E3,3.416E3,1.886E3,4.349E3,4.915E3,2.902E3,3.067E3,4.291E3,3E0,4.19E3,1E0,9E0,1E0,4.873E3,5.4E1,3.627E3,6E0,2.796E3,1.5E1,2.548E3,3.9E1,4.8E1,6.1E1,7E0,6E0,1.31E2,3.83E3,4.645E3,2.2E1,1E0,1.6E1,6.168E3,1.69E3,1.11E3,5E0,1.119E3,1E0,1.422E3,1E1,2.211E3,1E0,1.408E3,1.13E3,8.49E2],"tree_param":{"num_deleted":"0","num_feature":"13221","num_nodes":"107","size_leaf_vector":"1"}},{"base_weights":[1.4862529E-3,-2.4382365E0,4.3483615E0,-3.5489805E0,-7.275312E-1,2.7084725E0,8.211016E0,-4.8814797E-1,-3.7665489E0,-1.6340325E0,-3.726387E-2,1.8780892E0,4.2603784E0,6.556493E0,9.64178E0,-7.58087E0,-2.6078665E-1,-4.6531115E0,-3.1235828E0,1.2327418E1,-1.6459684E0,-3.8225372E0,-4.7770888E-3,2.0300905E1,1.8566891E0,1.3173508E1,4.237923E0,5.816166E0,7.190791E0,8.965292E0,1.0649841E1,-8.063207E0,-1.1122054E-1,-5.1189556E0,-4.271051E0,-3.5602095E0,-2.6819756E0,5.4161015E0,1.1842285E1,8.255533E0,-1.6534206E0,-5.221251E-1,3.9437544E-1,5.131563E0,1.44869795E1,1.5446353E1,1.8296189E0,1.1297802E1,4.214769E0,1.660057E1,5.7425733E0,1.1015722E1,7.141736E0,1.3064017E1,8.911273E0,1.1139791E1,8.179917E0,-8.313294E0,1.8737366E-2,3.2322347E0,-3.0807273E0,-3.5974343E0,-2.5204954E0,-3.2011933E0,-2.0662441E0,5.628675E0,-1.6146001E0,7.589669E0,-2.1735678E0,-1.2147005E0,-8.5047406E-1,7.2604046E0,-3.1981695E-1,5.324778E0,2.2457491E-1,6.5060277E0,1.3147895E1,8.1612414E-1,1.4543405E0,2.2977517E0,2.9561105E0,4.599502E0,1.13957205E1,1.325039E1,3.4260888E0,-2.8819718E0,4.304765E0,-1.1962402E0,5.370531E0,6.3358974E0,8.053395E0,1.1444764E1,4.653327E0],"categories":[],"categories_nodes":[],"categories_segments":[],"categories_sizes":[],"default_left":[0,0,0,0,0,0,0,0,0,0,0,0,0,0,0,0,0,0,0,0,0,0,0,0,0,0,0,0,0,0,0,0,0,0,0,0,0,0,0,0,0,0,0,0,0,0,0,0,0,0,0,0,0,0,0,0,0,0,0,0,0,0,0,0,0,0,0,0,0,0,0,0,0,0,0,0,0,0,0,0,0,0,0,0,0,0,0,0,0,0,0,0,0],"id":1,"left_children":[1,3,5,7,9,11,13,15,17,19,21,23,25,27,29,-1,31,33,35,37,39,-1,41,43,45,-1,47,49,51,53,55,-1,57,59,61,63,65,67,-1,-1,69,71,73,-1,-1,75,77,-1,79,81,83,-1,85,-1,87,89,91,-1,-1,-1,-1,-1,-1,-1,-1,-1,-1,-1,-1,-1,-1,-1,-1,-1,-1,-1,-1,-1,-1,-1,-1,-1,-1,-1,-1,-1,-1,-1,-1,-1,-1,-1,-1],"loss_changes":[7.8382806E5,8.995081E4,1.6828075E5,1.9112656E4,1.1662261E4,2.4029688E4,1.86805E4,5.260457E3,1.5261125E4,1.3629316E3,2.1773145E3,4.753633E3,2.490164E3,1.6839375E3,2.7986875E3,0E0,3.6881533E3,1.9827344E3,2.9860625E3,2.5157825E2,9.4701953E2,0E0,2.1744526E3,4.257539E2,4.4377305E3,0E0,2.1147031E3,1.254668E3,9.509453E2,1.5674844E3,1.9649062E3,0E0,3.626397E3,8.580469E2,7.25E2,1.5961094E3,8.665469E2,3.7272485E2,0E0,0E0,7.018242E2,6.376123E2,1.0090429E3,0E0,0E0,4.767837E2,3.3768945E3,0E0,1.7598516E3,8.952368E1,7.6991797E2,0E0,8.0722656E2,0E0,1.1137656E3,1.7314062E3,1.1697383E3,0E0,0E0,0E0,0E0,0E0,0E0,0E0,0E0,0E0,0E0,0E0,0E0,0E0,0E0,0E0,0E0,0E0,0E0,0E0,0E0,0E0,0E0,0E0,0E0,0E0,0E0,0E0,0E0,0E0,0E0,0E0,0E0,0E0,0E0,0E0,0E0],"parents":[2147483647,0,0,1,1,2,2,3,3,4,4,5,5,6,6,7,7,8,8,9,9,10,10,11,11,12,12,13,13,14,14,16,16,17,17,18,18,19,19,20,20,22,22,23,23,24,24,26,26,27,27,28,28,29,29,30,30,32,32,33,33,34,34,35,35,36,36,37,37,40,40,41,41,42,42,45,45,46,46,48,48,49,49,50,50,52,52,54,54,55,55,56,56],"right_children":[2,4,6,8,10,12,14,16,18,20,22,24,26,28,30,-1,32,34,36,38,40,-1,42,44,46,-1,48,50,52,54,56,-1,58,60,62,64,66,68,-1,-1,70,72,74,-1,-1,76,78,-1,80,82,84,-1,86,-1,88,90,92,-1,-1,-1,-1,-1,-1,-1,-1,-1,-1,-1,-1,-1,-1,-1,-1,-1,-1,-1,-1,-1,-1,-1,-1,-1,-1,-1,-1,-1,-1,-1,-1,-1,-1,-1,-1],"split_conditions":[3.93E0,1.94E0,1.063E1,2E-1,2.6E0,6.99E0,1.45E1,2.00001E0,1.09E0,2.00001E0,2.00001E0,2.00001E0,2.00001E0,1.224E1,1.914E1,-7.58087E0,2.00001E0,7.5E-1,1.47E0,2.12E0,2.00001E0,-3.8225372E0,3.1E0,4.13E0,2.00001E0,1.3173508E1,2.00001E0,2.00001E0,2.00001E0,2.00001E0,2.802E1,-8.063207E0,2.00001E0,2.00001E0,2.00001E0,2.00001E0,2.00001E0,1.98E0,1.1842285E1,8.255533E0,2.17E0,2.00001E0,2.00001E0,5.131563E0,1.44869795E1,4.56E0,5.33E0,1.1297802E1,8.98E0,1.089E1,2.00001E0,1.1015722E1,2.00001E0,1.3064017E1,2.00001E0,2.411E1,2.00001E0,-8.313294E0,1.8737366E-2,3.2322347E0,-3.0807273E0,-3.5974343E0,-2.5204954E0,-3.2011933E0,-2.0662441E0,5.628675E0,-1.6146001E0,7.589669E0,-2.1735678E0,-1.2147005E0,-8.5047406E-1,7.2604046E0,-3.1981695E-1,5.324778E0,2.2457491E-1,6.5060277E0,1.3147895E1,8.1612414E-1,1.4543405E0,2.2977517E0,2.9561105E0,4.599502E0,1.13957205E1,1.325039E1,3.4260888E0,-2.8819718E0,4.304765E0,-1.1962402E0,5.370531E0,6.3358974E0,8.053395E0,1.1444764E1,4.653327E0],"split_indices":[13220,13220,13220,13220,13220,13220,13220,11401,13220,6208,9961,10476,11489,13220,13220,0,11595,13220,13220,13220,6173,0,13220,13220,8026,0,10790,4660,4706,3688,13220,0,9470,3879,11594,11594,6208,13220,0,0,13220,5399,10476,0,0,13220,13220,0,13220,13220,3328,0,11636,0,3932,13220,6828,0,0,0,0,0,0,0,0,0,0,0,0,0,0,0,0,0,0,0,0,0,0,0,0,0,0,0,0,0,0,0,0,0,0,0,0],"split_type":[0,0,0,0,0,0,0,0,0,0,0,0,0,0,0,0,0,0,0,0,0,0,0,0,0,0,0,0,0,0,0,0,0,0,0,0,0,0,0,0,0,0,0,0,0,0,0,0,0,0,0,0,0,0,0,0,0,0,0,0,0,0,0,0,0,0,0,0,0,0,0,0,0,0,0,0,0,0,0,0,0,0,0,0,0,0,0,0,0,0,0,0,0],"sum_hessian":[7.3908E4,4.7339E4,2.6569E4,2.8702E4,1.8637E4,1.8652E4,7.917E3,1.905E3,2.6797E4,8.056E3,1.0581E4,1.2152E4,6.5E3,3.674E3,4.243E3,3.4E1,1.871E3,1.1262E4,1.5535E4,6E0,8.05E3,5.3E1,1.0528E4,1.3E1,1.2139E4,7E0,6.493E3,1.7E3,1.974E3,2.545E3,1.698E3,2E1,1.851E3,5.069E3,6.193E3,7.808E3,7.727E3,4E0,2E0,3E0,8.047E3,4.585E3,5.943E3,4E0,9E0,2.3E1,1.2116E4,9E0,6.484E3,1E1,1.69E3,7E0,1.967E3,9E0,2.536E3,1.414E3,2.84E2,1.8E1,1.833E3,7E0,5.062E3,2.39E2,5.954E3,4.78E2,7.33E3,5E0,7.722E3,2E0,2E0,3.125E3,4.922E3,3E0,4.582E3,1.3E1,5.93E3,1.5E1,8E0,6.771E3,5.345E3,4.212E3,2.272E3,3E0,7E0,2E0,1.688E3,5E0,1.962E3,9E0,2.527E3,1.132E3,2.82E2,9E0,2.75E2],"tree_param":{"num_deleted":"0","num_feature":"13221","num_nodes":"93","size_leaf_vector":"1"}},{"base_weights":[2.827832E-3,-9.339156E-1,1.8508445E0,-1.4623641E0,-2.716979E-1,1.2387199E0,3.48119E0,-2.0781921E-1,-1.5565432E0,-5.6874806E-1,1.0486411E-1,7.492421E-1,1.6975317E0,3.0350738E0,4.2234077E0,-8.261841E0,-7.122801E-2,-1.7989093E0,-1.1751417E0,-4.1652665E0,-5.499878E-1,-5.038427E0,1.1815594E-1,-6.615428E0,7.8019273E-1,-6.2542515E0,1.7427728E0,1.01429E1,2.9854386E0,7.209969E0,4.160032E0,-3.6136684E0,1.9200881E-1,-2.553072E0,-1.7098756E0,4.8324137E0,-1.1834518E0,-4.2870955E0,-1.376023E0,1.7696198E0,-5.6789505E-1,-4.7263827E0,1.3234513E-1,-5.93936E0,8.281826E-1,-4.013536E0,-1.7320741E0,8.910846E0,1.7270263E0,6.967207E0,3.7142324E0,1.14196615E1,2.9656708E0,-8.789655E0,4.1807404E0,-6.8575754E0,1.851801E-1,3.3240669E0,-1.5368463E0,3.1136296E0,-1.0282389E0,-1.3954785E0,-6.7895323E-1,-2.2983823E0,-3.0531814E0,3.8000068E-1,1.5920147E0,-1.3836154E0,-3.2690293E-1,-2.9353065E0,9.300276E-2,-4.1670165E0,-2.1871197E0,7.5657697E0,4.845954E-1,-1.3988748E0,3.7945348E-1,1.1465755E1,1.0293484E0,7.991018E0,1.7671561E0,-3.6784918E0,2.5295787E0],"categories":[],"categories_nodes":[],"categories_segments":[],"categories_sizes":[],"default_left":[0,0,0,0,0,0,0,0,0,0,0,0,0,0,0,0,0,0,0,0,0,0,0,0,0,0,0,0,0,0,0,0,0,0,0,0,0,0,0,0,0,0,0,0,0,0,0,0,0,0,0,0,0,0,0,0,0,0,0,0,0,0,0,0,0,0,0,0,0,0,0,0,0,0,0,0,0,0,0,0,0,0,0],"id":2,"left_children":[1,3,5,7,9,11,13,15,17,19,21,23,25,27,29,-1,31,33,35,37,39,-1,41,-1,43,45,47,49,51,-1,53,-1,55,57,59,-1,61,63,-1,65,67,-1,69,71,73,-1,75,-1,77,-1,-1,-1,79,-1,81,-1,-1,-1,-1,-1,-1,-1,-1,-1,-1,-1,-1,-1,-1,-1,-1,-1,-1,-1,-1,-1,-1,-1,-1,-1,-1,-1,-1],"loss_changes":[1.2794689E5,1.7163848E4,2.4807336E4,3.2227422E3,2.435204E3,4.0584277E3,2.2341328E3,3.529766E3,2.3434297E3,8.1883936E2,1.0860045E3,3.1967388E3,3.3673438E3,1.4662812E3,1.2069922E3,0E0,2.9590251E3,1.0372656E3,7.6589746E2,4.5354004E0,5.0394434E2,0E0,1.0886786E3,0E0,2.818795E3,9.2666504E1,1.889459E3,9.651099E1,1.2803164E3,0E0,1.0451602E3,0E0,2.4553198E3,1.2459473E2,3.7807812E2,0E0,5.8117285E2,1.7276611E0,0E0,9.170816E1,4.8029492E2,0E0,1.0904457E3,1.1772803E2,2.0849897E3,0E0,9.977911E0,0E0,1.8111523E3,0E0,0E0,0E0,8.503828E2,0E0,9.4259766E2,0E0,0E0,0E0,0E0,0E0,0E0,0E0,0E0,0E0,0E0,0E0,0E0,0E0,0E0,0E0,0E0,0E0,0E0,0E0,0E0,0E0,0E0,0E0,0E0,0E0,0E0,0E0,0E0],"parents":[2147483647,0,0,1,1,2,2,3,3,4,4,5,5,6,6,7,7,8,8,9,9,10,10,11,11,12,12,13,13,14,14,16,16,17,17,18,18,19,19,20,20,22,22,24,24,25,25,26,26,27,27,28,28,30,30,32,32,33,33,34,34,36,36,37,37,39,39,40,40,42,42,43,43,44,44,46,46,48,48,52,52,54,54],"right_children":[2,4,6,8,10,12,14,16,18,20,22,24,26,28,30,-1,32,34,36,38,40,-1,42,-1,44,46,48,50,52,-1,54,-1,56,58,60,-1,62,64,-1,66,68,-1,70,72,74,-1,76,-1,78,-1,-1,-1,80,-1,82,-1,-1,-1,-1,-1,-1,-1,-1,-1,-1,-1,-1,-1,-1,-1,-1,-1,-1,-1,-1,-1,-1,-1,-1,-1,-1,-1,-1],"split_conditions":[4.23E0,1.85E0,1.166E1,2E-1,2.88E0,6.39E0,1.733E1,2.00001E0,1.3E0,2.00001E0,2.00001E0,2.00001E0,2.00001E0,2.00001E0,2.00001E0,-8.261841E0,2.00001E0,5E-1,2.00001E0,2.67E0,2.00001E0,-5.038427E0,2.00001E0,-6.615428E0,2.00001E0,7.59E0,2.00001E0,1.633E1,2.00001E0,7.209969E0,2.00001E0,-3.6136684E0,2.00001E0,2.00001E0,2.00001E0,4.8324137E0,2.00001E0,2.3E0,-1.376023E0,2.17E0,2.00001E0,-4.7263827E0,2.00001E0,5.7E0,2.00001E0,-4.013536E0,7.95E0,8.910846E0,2.00001E0,6.967207E0,3.7142324E0,1.14196615E1,2.00001E0,-8.789655E0,2.00001E0,-6.8575754E0,1.851801E-1,3.3240669E0,-1.5368463E0,3.1136296E0,-1.0282389E0,-1.3954785E0,-6.7895323E-1,-2.2983823E0,-3.0531814E0,3.8000068E-1,1.5920147E0,-1.3836154E0,-3.2690293E-1,-2.9353065E0,9.300276E-2,-4.1670165E0,-2.1871197E0,7.5657697E0,4.845954E-1,-1.3988748E0,3.7945348E-1,1.1465755E1,1.0293484E0,7.991018E0,1.7671561E0,-3.6784918E0,2.5295787E0],"split_indices":[13220,13220,13220,13220,13220,13220,13220,7220,13220,12959,1034,408,7252,4765,13143,0,4470,13220,6208,13220,13053,0,4043,0,7144,13220,11757,13220,10941,0,9948,0,1860,1619,1501,0,11594,13220,0,13220,11569,0,6996,13220,2281,0,13220,0,8576,0,0,0,1567,0,7658,0,0,0,0,0,0,0,0,0,0,0,0,0,0,0,0,0,0,0,0,0,0,0,0,0,0,0,0],"split_type":[0,0,0,0,0,0,0,0,0,0,0,0,0,0,0,0,0,0,0,0,0,0,0,0,0,0,0,0,0,0,0,0,0,0,0,0,0,0,0,0,0,0,0,0,0,0,0,0,0,0,0,0,0,0,0,0,0,0,0,0,0,0,0,0,0,0,0,0,0,0,0,0,0,0,0,0,0,0,0,0,0,0,0],"sum_hessian":[7.3908E4,4.9047E4,2.4861E4,2.7278E4,2.1769E4,1.8076E4,6.785E3,1.905E3,2.5373E4,1.2169E4,9.6E3,8.747E3,9.329E3,4.241E3,2.544E3,1.8E1,1.887E3,1.5512E4,9.861E3,6.2E1,1.2107E4,1.4E1,9.586E3,2.2E1,8.725E3,5.2E1,9.277E3,2.8E1,4.213E3,1.9E1,2.525E3,7.9E1,1.808E3,1.635E3,1.3877E4,8E0,9.853E3,5.7E1,5E0,9.2E1,1.2015E4,1.6E1,9.57E3,6.1E1,8.664E3,4.7E1,5E0,1E1,9.267E3,1.9E1,9E0,4E0,4.209E3,2E0,2.523E3,1.7E1,1.791E3,1E0,1.634E3,7E0,1.387E4,4.26E2,9.427E3,4E1,1.7E1,4.1E1,5.1E1,1.56E2,1.1859E4,4.2E1,9.528E3,4.1E1,2E1,1.4E1,8.65E3,4E0,1E0,5E0,9.262E3,7E0,4.202E3,8E0,2.515E3],"tree_param":{"num_deleted":"0","num_feature":"13221","num_nodes":"83","size_leaf_vector":"1"}},{"base_weights":[1.2609685E-3,-4.195106E-1,6.912157E-1,-5.63446E-1,-1.1205732E-1,3.6630479E-1,1.3131006E0,-8.297526E0,-5.5960906E-1,1.6627869E1,-1.1662404E-1,1.1268868E1,3.5441682E-1,7.7180347E0,1.3045435E0,1.1423521E1,-5.6147194E-1,1.4202022E1,-1.349588E0,-5.521343E0,-1.0366309E-1,4.300514E0,7.645305E0,1.251963E1,3.4445807E-1,4.868382E0,1.290196E0,-6.750561E0,-5.559057E-1,4.8769343E-1,-3.4389293E0,9.521692E0,-1.0803189E-1,3.4502573E0,8.5025716E-1,8.2271805E0,1.9459095E1,7.811289E0,3.3545873E-1,8.774997E0,1.2831008E0,-8.058908E0,-9.825024E-1,-4.809329E0,-3.30952E-1,1.2282134E1,-6.650606E-2,-1.0971623E-1,5.4518824E0,1.3108997E1,2.9706488E0,-5.764045E0,2.0777377E-1,5.883804E0,7.633662E-1],"categories":[],"categories_nodes":[],"categories_segments":[],"categories_sizes":[],"default_left":[0,0,0,0,0,0,0,0,0,0,0,0,0,0,0,0,0,0,0,0,0,0,0,0,0,0,0,0,0,0,0,0,0,0,0,0,0,0,0,0,0,0,0,0,0,0,0,0,0,0,0,0,0,0,0],"id":3,"left_children":[1,3,5,7,9,11,13,-1,15,17,19,21,23,-1,25,-1,27,-1,-1,29,31,33,-1,35,37,-1,39,41,43,-1,-1,-1,45,-1,-1,47,49,-1,51,-1,53,-1,-1,-1,-1,-1,-1,-1,-1,-1,-1,-1,-1,-1,-1],"loss_changes":[2.1457059E4,2.0316553E3,5.65692E3,1.5839668E3,1.1211932E3,2.3797808E3,9.328418E2,0E0,1.1521357E3,5.849862E2,1.0248243E3,1.5053271E2,2.2215813E3,0E0,9.276377E2,0E0,1.0731875E3,0E0,0E0,5.1260498E1,1.0208339E3,1.2754639E1,0E0,2.8671606E2,2.0896782E3,0E0,8.8790137E2,9.344883E2,1.00190625E3,0E0,0E0,0E0,8.4703284E2,0E0,0E0,8.115497E1,6.514221E1,0E0,1.9789844E3,0E0,8.712197E2,0E0,0E0,0E0,0E0,0E0,0E0,0E0,0E0,0E0,0E0,0E0,0E0,0E0,0E0],"parents":[2147483647,0,0,1,1,2,2,3,3,4,4,5,5,6,6,8,8,9,9,10,10,11,11,12,12,14,14,16,16,19,19,20,20,21,21,23,23,24,24,26,26,27,27,28,28,32,32,35,35,36,36,38,38,40,40],"right_children":[2,4,6,8,10,12,14,-1,16,18,20,22,24,-1,26,-1,28,-1,-1,30,32,34,-1,36,38,-1,40,42,44,-1,-1,-1,46,-1,-1,48,50,-1,52,-1,54,-1,-1,-1,-1,-1,-1,-1,-1,-1,-1,-1,-1,-1,-1],"split_conditions":[3.7E0,2.12E0,9.34E0,2.00001E0,2.00001E0,2.00001E0,2.00001E0,-8.297526E0,2.00001E0,3.28E0,2.00001E0,5.78E0,2.00001E0,7.7180347E0,2.00001E0,1.1423521E1,2.00001E0,1.4202022E1,-1.349588E0,2.14E0,2.00001E0,5.4E0,7.645305E0,6.77E0,2.00001E0,4.868382E0,2.00001E0,2E-1,2.00001E0,4.8769343E-1,-3.4389293E0,9.521692E0,2.00001E0,3.4502573E0,8.5025716E-1,4.5E0,7.22E0,7.811289E0,2.00001E0,8.774997E0,2.00001E0,-8.058908E0,-9.825024E-1,-4.809329E0,-3.30952E-1,1.2282134E1,-6.650606E-2,-1.0971623E-1,5.4518824E0,1.3108997E1,2.9706488E0,-5.764045E0,2.0777377E-1,5.883804E0,7.633662E-1],"split_indices":[13220,13220,13220,5074,10354,3821,949,0,11721,13220,7132,13220,8037,0,5407,0,5494,0,0,13220,599,13220,0,13220,13112,0,1405,13220,8208,0,0,0,3076,0,0,13220,13220,0,1144,0,4724,0,0,0,0,0,0,0,0,0,0,0,0,0,0],"split_type":[0,0,0,0,0,0,0,0,0,0,0,0,0,0,0,0,0,0,0,0,0,0,0,0,0,0,0,0,0,0,0,0,0,0,0,0,0,0,0,0,0,0,0,0,0,0,0,0,0,0,0,0,0,0,0],"sum_hessian":[7.3908E4,4.591E4,2.7998E4,3.127E4,1.464E4,1.8391E4,9.607E3,8E0,3.1262E4,3E0,1.4637E4,1.9E1,1.8372E4,6E0,9.601E3,2E0,3.126E4,2E0,1E0,3.4E1,1.4603E4,4E0,1.5E1,1.4E1,1.8358E4,1.9E1,9.582E3,2.7E1,3.1233E4,1E0,3.3E1,3E0,1.46E4,2E0,2E0,1E1,4E0,1.2E1,1.8346E4,4E0,9.578E3,1.1E1,1.6E1,1.7E1,3.1216E4,1E0,1.4599E4,1E0,9E0,3E0,1E0,1.9E1,1.8327E4,1.1E1,9.567E3],"tree_param":{"num_deleted":"0","num_feature":"13221","num_nodes":"55","size_leaf_vector":"1"}},{"base_weights":[1.6438388E-3,-1.4099017E-1,3.7730274E-1,8.337432E0,-1.4282191E-1,1.1695602E1,3.7258428E-1,5.0964155E0,-1.4751838E-1,8.535078E0,3.664329E-1,1.8155456E0,5.6122828E0,-4.517356E0,-1.4244734E-1,-4.645681E0,3.8323647E-1,-1.8515491E-1,1.5079831E0,5.860381E0,1.8522744E0,1.176178E0,-5.037423E0,-3.8174343E0,-1.3645396E-1,3.9368255E0,-4.9108815E0,1.29794235E1,3.7699783E-1,1.4525709E0,-1.6192104E0,2.4681993E0,3.905004E0,-2.9397584E-2,2.2668257E0,2.5844269E0,-1.8692255E-1,-3.0876498E0,-1.3866984E0,-1.4810089E0,-3.858295E0,2.130103E0,-8.54409E-2,-1.0963898E-1,-2.9878507E0,8.753609E-1,8.458425E0,4.7721663E0,2.2011903E-1],"categories":[],"categories_nodes":[],"categories_segments":[],"categories_sizes":[],"default_left":[0,0,0,0,0,0,0,0,0,0,0,0,0,0,0,0,0,0,0,0,0,0,0,0,0,0,0,0,0,0,0,0,0,0,0,0,0,0,0,0,0,0,0,0,0,0,0,0,0],"id":4,"left_children":[1,3,5,-1,7,-1,9,11,13,-1,15,17,19,21,23,25,27,29,-1,31,33,35,37,39,41,-1,43,45,47,-1,-1,-1,-1,-1,-1,-1,-1,-1,-1,-1,-1,-1,-1,-1,-1,-1,-1,-1,-1],"loss_changes":[3.9602256E3,1.3793646E3,1.8272966E3,0E0,1.3187412E3,0E0,1.7276677E3,7.105029E1,1.1852728E3,0E0,1.713834E3,1.16334095E1,2.7391846E1,1.895083E2,1.1768779E3,2.3432605E2,1.5872805E3,2.6184954E1,0E0,1.6235352E1,1.4830734E1,2.9291916E1,4.9920654E0,2.90823E2,1.1707104E3,0E0,2.0906982E1,1.082262E2,1.5518711E3,0E0,0E0,0E0,0E0,0E0,0E0,0E0,0E0,0E0,0E0,0E0,0E0,0E0,0E0,0E0,0E0,0E0,0E0,0E0,0E0],"parents":[2147483647,0,0,1,1,2,2,4,4,6,6,7,7,8,8,10,10,11,11,12,12,13,13,14,14,15,15,16,16,17,17,19,19,20,20,21,21,22,22,23,23,24,24,26,26,27,27,28,28],"right_children":[2,4,6,-1,8,-1,10,12,14,-1,16,18,20,22,24,26,28,30,-1,32,34,36,38,40,42,-1,44,46,48,-1,-1,-1,-1,-1,-1,-1,-1,-1,-1,-1,-1,-1,-1,-1,-1,-1,-1,-1,-1],"split_conditions":[5.2E0,2.00001E0,2.00001E0,8.337432E0,2.00001E0,1.1695602E1,2.00001E0,3.03E0,2.00001E0,8.535078E0,2.00001E0,2.94E0,4.33E0,2.9E0,2.00001E0,5.26E0,2.00001E0,2.81E0,1.5079831E0,3.45E0,4.61E0,2E-1,4.74E0,4.18E0,2.00001E0,3.9368255E0,5.56E0,5.78E0,2.00001E0,1.4525709E0,-1.6192104E0,2.4681993E0,3.905004E0,-2.9397584E-2,2.2668257E0,2.5844269E0,-1.8692255E-1,-3.0876498E0,-1.3866984E0,-1.4810089E0,-3.858295E0,2.130103E0,-8.54409E-2,-1.0963898E-1,-2.9878507E0,8.753609E-1,8.458425E0,4.7721663E0,2.2011903E-1],"split_indices":[13220,6173,3939,0,13146,0,13029,13220,7269,0,7143,13220,13220,13220,7149,13220,11732,13220,0,13220,13220,13220,13220,13220,8026,0,13220,13220,13135,0,0,0,0,0,0,0,0,0,0,0,0,0,0,0,0,0,0,0,0],"split_type":[0,0,0,0,0,0,0,0,0,0,0,0,0,0,0,0,0,0,0,0,0,0,0,0,0,0,0,0,0,0,0,0,0,0,0,0,0,0,0,0,0,0,0,0,0,0,0,0,0],"sum_hessian":[7.3908E4,5.3569E4,2.0339E4,6E0,5.3563E4,4E0,2.0335E4,4.7E1,5.3516E4,8E0,2.0327E4,7E0,4E1,6.1E1,5.3455E4,6.7E1,2.026E4,2E0,5E0,3.7E1,3E0,5E0,5.6E1,8.6E1,5.3369E4,1E0,6.6E1,9E0,2.0251E4,1E0,1E0,1.2E1,2.5E1,2E0,1E0,1E0,4E0,5.3E1,3E0,5.8E1,2.8E1,8.5E1,5.3284E4,1E0,6.5E1,1E0,8E0,2.6E1,2.0225E4],"tree_param":{"num_deleted":"0","num_feature":"13221","num_nodes":"49","size_leaf_vector":"1"}},{"base_weights":[1.311221E-3,1.0548902E1,-1.6865284E-3,7.433644E0,7.7494063E0,8.570216E0,-3.426715E-3,-2.956747E-1,5.1737432E0,-4.4969004E-2,5.9339017E-1,-8.078218E0,-4.1827094E-2,7.4197297E0,5.7855976E-1,-4.9519887E0,-1.0577191E0,7.5770807E0,-4.4917278E-2,3.0753026E0,5.431464E-1,9.274524E0,1.8184063E0,6.1359563E0,-2.8200274E-2,-1.12461605E1,3.3067554E-1],"categories":[],"categories_nodes":[],"categories_segments":[],"categories_sizes":[],"default_left":[0,0,0,0,0,0,0,0,0,0,0,0,0,0,0,0,0,0,0,0,0,0,0,0,0,0,0],"id":5,"left_children":[1,3,5,-1,7,-1,9,-1,-1,11,13,15,17,-1,19,-1,-1,21,23,-1,25,-1,-1,-1,-1,-1,-1],"loss_changes":[2.3369492E3,1.219165E1,1.836872E3,0E0,8.3444275E1,0E0,1.8317686E3,0E0,0E0,1.7430731E3,8.323008E2,1.5306763E1,1.6259946E3,0E0,7.7060767E2,0E0,0E0,9.563301E2,1.4773523E3,0E0,7.439656E2,0E0,0E0,0E0,0E0,0E0,0E0],"parents":[2147483647,0,0,1,1,2,2,4,4,6,6,9,9,10,10,11,11,12,12,14,14,17,17,18,18,20,20],"right_children":[2,4,6,-1,8,-1,10,-1,-1,12,14,16,18,-1,20,-1,-1,22,24,-1,26,-1,-1,-1,-1,-1,-1],"split_conditions":[2.00001E0,5.56E0,2.00001E0,7.433644E0,5.63E0,8.570216E0,1.381E1,-2.956747E-1,5.1737432E0,2.00001E0,2.00001E0,6.39E0,2.00001E0,7.4197297E0,2.00001E0,-4.9519887E0,-1.0577191E0,9.52E0,2.00001E0,3.0753026E0,2.00001E0,9.274524E0,1.8184063E0,6.1359563E0,-2.8200274E-2,-1.12461605E1,3.3067554E-1],"split_indices":[3852,13220,8610,0,13220,0,13220,0,0,7184,2346,13220,4742,0,7330,0,0,13220,11702,0,13151,0,0,0,0,0,0],"split_type":[0,0,0,0,0,0,0,0,0,0,0,0,0,0,0,0,0,0,0,0,0,0,0,0,0,0,0],"sum_hessian":[7.3908E4,2E1,7.3888E4,1E1,1E1,8E0,7.388E4,1E0,9E0,6.9073E4,4.807E3,2.6E1,6.9047E4,5E0,4.802E3,2.5E1,1E0,2.7E1,6.902E4,3.6E1,4.766E3,9E0,1.8E1,1.3E1,6.9007E4,1E0,4.765E3],"tree_param":{"num_deleted":"0","num_feature":"13221","num_nodes":"27","size_leaf_vector":"1"}},{"base_weights":[9.525981E-4,-8.161931E0,3.493578E-3,3.1285195E0,-5.404168E0,1.0282026E1,1.5456267E-3,1.4419751E0,6.836925E0,-9.545509E0,3.6137744E-3,-5.915891E0,-1.4492593E0,1.0190393E1,1.6824779E-3,7.6015773E0,6.7475557E0,8.088224E0,-7.273508E-4,5.671904E-1,4.464841E0,4.2555404E-1,7.35247E0,5.1420903E0,-1.7602358E-3],"categories":[],"categories_nodes":[],"categories_segments":[],"categories_sizes":[],"default_left":[0,0,0,0,0,0,0,0,0,0,0,0,0,0,0,0,0,0,0,0,0,0,0,0,0],"id":6,"left_children":[1,3,5,-1,-1,7,9,-1,-1,11,13,-1,-1,15,17,-1,19,21,23,-1,-1,-1,-1,-1,-1],"loss_changes":[1.5330288E3,3.069336E2,1.4793557E3,0E0,0E0,9.53645E1,1.458656E3,0E0,0E0,1.2041016E1,1.4530621E3,0E0,0E0,3.3995728E1,1.4390562E3,0E0,2.5172363E1,6.6758813E2,1.3960981E3,0E0,0E0,0E0,0E0,0E0,0E0],"parents":[2147483647,0,0,1,1,2,2,5,5,6,6,9,9,10,10,13,13,14,14,16,16,17,17,18,18],"right_children":[2,4,6,-1,-1,8,10,-1,-1,12,14,-1,-1,16,18,-1,20,22,24,-1,-1,-1,-1,-1,-1],"split_conditions":[2.00001E0,2E-1,2.00001E0,3.1285195E0,-5.404168E0,5.13E0,2.00001E0,1.4419751E0,6.836925E0,7.22E0,2.00001E0,-5.915891E0,-1.4492593E0,6.11E0,2.00001E0,7.6015773E0,6.3E0,5.48E0,2.00001E0,5.671904E-1,4.464841E0,4.2555404E-1,7.35247E0,5.1420903E0,-1.7602358E-3],"split_indices":[9948,13220,6384,0,0,13220,7254,0,0,13220,3841,0,0,13220,2281,0,13220,13220,11757,0,0,0,0,0,0],"split_type":[0,0,0,0,0,0,0,0,0,0,0,0,0,0,0,0,0,0,0,0,0,0,0,0,0],"sum_hessian":[7.3908E4,2.2E1,7.3886E4,1E0,2.1E1,1.3E1,7.3873E4,2E0,1.1E1,1.5E1,7.3858E4,1.4E1,1E0,1.3E1,7.3845E4,6E0,7E0,2.1E1,7.3824E4,1E0,6E0,8E0,1.3E1,1.8E1,7.3806E4],"tree_param":{"num_deleted":"0","num_feature":"13221","num_nodes":"25","size_leaf_vector":"1"}},{"base_weights":[7.0830615E-4,-6.206937E0,2.5283005E-3,6.7414646E0,8.559057E-4,6.285923E0,-8.457164E-4,5.4669294E0,-4.104168E-3,2.7973983E0,5.9782634E0,8.736457E0,-5.2877986E-3,2.4562848E0,-1.1171161E0,4.8850474E0,-4.4309506E-3],"categories":[],"categories_nodes":[],"categories_segments":[],"categories_sizes":[],"default_left":[0,0,0,0,0,0,0,0,0,0,0,0,0,0,0,0,0],"id":7,"left_children":[1,-1,3,-1,5,-1,7,9,11,13,-1,-1,15,-1,-1,-1,-1],"loss_changes":[1.3916542E3,0E0,1.3882506E3,0E0,1.3170929E3,0E0,1.3162328E3,5.003235E2,1.2729153E3,1.8279095E2,0E0,0E0,1.2614333E3,0E0,0E0,0E0,0E0],"parents":[2147483647,0,0,2,2,4,4,6,6,7,7,8,8,9,9,12,12],"right_children":[2,-1,4,-1,6,-1,8,10,12,14,-1,-1,16,-1,-1,-1,-1],"split_conditions":[2.00001E0,-6.206937E0,2.00001E0,6.7414646E0,2.00001E0,6.285923E0,2.00001E0,3.7E0,2.00001E0,3.17E0,5.9782634E0,8.736457E0,2.00001E0,2.4562848E0,-1.1171161E0,4.8850474E0,-4.4309506E-3],"split_indices":[9915,0,8607,0,13149,0,10476,13220,1888,13220,0,0,10790,0,0,0,0],"split_type":[0,0,0,0,0,0,0,0,0,0,0,0,0,0,0,0,0],"sum_hessian":[7.3908E4,1.2E1,7.3896E4,1E1,7.3886E4,1.1E1,7.3875E4,4.3E1,7.3832E4,2.8E1,1.5E1,5E0,7.3827E4,2.2E1,6E0,1.8E1,7.3809E4],"tree_param":{"num_deleted":"0","num_feature":"13221","num_nodes":"17","size_leaf_vector":"1"}},{"base_weights":[6.5885426E-4,9.484158E0,-4.1051873E-4,7.0676956E0,-1.845201E-3,-1.0173623E1,-1.9315348E-4,-6.80582E0,-4.9990454E0,9.36739E0,-1.2497349E-3,-4.4740164E-1,-3.7009687E0,-6.8084207E0,1.1466214E-3,-4.284016E0,4.4451773E-1,4.3208017E0,-6.577751E-4],"categories":[],"categories_nodes":[],"categories_segments":[],"categories_sizes":[],"default_left":[0,0,0,0,0,0,0,0,0,0,0,0,0,0,0,0,0,0,0],"id":8,"left_children":[1,-1,3,-1,5,7,9,-1,11,-1,13,-1,-1,15,17,-1,-1,-1,-1],"loss_changes":[1.2492754E3,0E0,1.2490471E3,0E0,1.2417826E3,1.5910034E1,1.2188345E3,0E0,1.5293297E1,0E0,1.205201E3,0E0,0E0,7.037793E1,1.1927542E3,0E0,0E0,0E0,0E0],"parents":[2147483647,0,0,2,2,4,4,5,5,6,6,8,8,10,10,13,13,14,14],"right_children":[2,-1,4,-1,6,8,10,-1,12,-1,14,-1,-1,16,18,-1,-1,-1,-1],"split_conditions":[2.00001E0,9.484158E0,2.00001E0,7.0676956E0,2.00001E0,7.95E0,2.00001E0,-6.80582E0,8.07E0,9.36739E0,2.00001E0,-4.4740164E-1,-3.7009687E0,6.49E0,2.00001E0,-4.284016E0,4.4451773E-1,4.3208017E0,-6.577751E-4],"split_indices":[5951,0,8632,0,9071,13220,11564,0,13220,0,12878,0,0,13220,13109,0,0,0,0],"split_type":[0,0,0,0,0,0,0,0,0,0,0,0,0,0,0,0,0,0,0],"sum_hessian":[7.3908E4,4E0,7.3904E4,8E0,7.3896E4,1.1E1,7.3885E4,8E0,3E0,4E0,7.3881E4,1E0,2E0,2.5E1,7.3856E4,2.4E1,1E0,2.2E1,7.3834E4],"tree_param":{"num_deleted":"0","num_feature":"13221","num_nodes":"19","size_leaf_vector":"1"}},{"base_weights":[4.7250887E-4,6.8940034E0,-9.2674507E-4,7.443903E0,-3.0428574E-3,8.404719E0,-1.1225662E0,1.3804903E1,-4.1642585E-3,2.1872313E0,6.526329E0,-5.5154804E-2,-9.5515484E-1,9.528794E0,1.0268395E0,8.253675E0,-5.2818498E-3,-1.0036814E1,-3.787798E-3,5.0057435E-1,-6.7244124E0,5.737548E0,-3.2053203E-3],"categories":[],"categories_nodes":[],"categories_segments":[],"categories_sizes":[],"default_left":[0,0,0,0,0,0,0,0,0,0,0,0,0,0,0,0,0,0,0,0,0,0,0],"id":9,"left_children":[1,-1,3,5,7,9,11,13,15,-1,-1,-1,-1,-1,-1,-1,17,19,21,-1,-1,-1,-1],"loss_changes":[1.188229E3,0E0,1.1642661E3,1.8228174E2,1.1440491E3,1.8392957E2,1.3048832E0,1.2348804E2,1.1361654E3,0E0,0E0,0E0,0E0,0E0,0E0,0E0,1.1071128E3,1.493258E2,1.098363E3,0E0,0E0,0E0,0E0],"parents":[2147483647,0,0,2,2,3,3,4,4,5,5,6,6,7,7,8,8,16,16,17,17,18,18],"right_children":[2,-1,4,6,8,10,12,14,16,-1,-1,-1,-1,-1,-1,-1,18,20,22,-1,-1,-1,-1],"split_conditions":[2.00001E0,6.8940034E0,2.00001E0,9.73E0,2.00001E0,6.88E0,2.098E1,7.22E0,2.00001E0,2.1872313E0,6.526329E0,-5.5154804E-2,-9.5515484E-1,9.528794E0,1.0268395E0,8.253675E0,2.00001E0,2E-1,2.00001E0,5.0057435E-1,-6.7244124E0,5.737548E0,-3.2053203E-3],"split_indices":[3493,0,8636,13220,8305,13220,13220,13220,8013,0,0,0,0,0,0,0,2286,13220,8009,0,0,0,0],"split_type":[0,0,0,0,0,0,0,0,0,0,0,0,0,0,0,0,0,0,0,0,0,0,0],"sum_hessian":[7.3908E4,8E0,7.39E4,2E1,7.388E4,1.8E1,2E0,5E0,7.3875E4,7E0,1.1E1,1E0,1E0,4E0,1E0,5E0,7.387E4,1E1,7.386E4,1E0,9E0,1.1E1,7.3849E4],"tree_param":{"num_deleted":"0","num_feature":"13221","num_nodes":"23","size_leaf_vector":"1"}},{"base_weights":[6.3463807E-4,-5.102113E0,2.3608943E-3,-5.947164E0,3.8369035E-3,-6.5501122E0,6.0551907E-3,-1.5144778E0,-5.5728016E0,7.4253783E0,4.882716E-3,1.1240877E0,-2.099082E0,-2.5385933E0,1.0543102E-2,-3.5268518E-1,-1.468141E0,-1.8844144E0,-9.9846077E-1,3.9886963E0,5.028393E-3],"categories":[],"categories_nodes":[],"categories_segments":[],"categories_sizes":[],"default_left":[0,0,0,0,0,0,0,0,0,0,0,0,0,0,0,0,0,0,0,0,0],"id":10,"left_children":[1,-1,3,-1,5,7,9,11,-1,-1,13,-1,15,17,19,-1,-1,-1,-1,-1,-1],"loss_changes":[1.0850302E3,0E0,1.081388E3,0E0,1.0742196E3,3.3060876E2,1.0711461E3,2.3738726E1,0E0,0E0,1.0633214E3,0E0,3.2925415E0,8.112427E1,1.0576293E3,0E0,0E0,0E0,0E0,0E0,0E0],"parents":[2147483647,0,0,2,2,4,4,5,5,6,6,7,7,10,10,12,12,13,13,14,14],"right_children":[2,-1,4,-1,6,8,10,12,-1,-1,14,-1,16,18,20,-1,-1,-1,-1,-1,-1],"split_conditions":[2.00001E0,-5.102113E0,2.00001E0,-5.947164E0,2.00001E0,3.28E0,2.00001E0,2.1E0,-5.5728016E0,7.4253783E0,2.00001E0,1.1240877E0,2.32E0,4.88E0,2.00001E0,-3.5268518E-1,-1.468141E0,-1.8844144E0,-9.9846077E-1,3.9886963E0,5.028393E-3],"split_indices":[7634,0,12879,0,12165,13220,9110,13220,0,0,7213,0,13220,13220,8578,0,0,0,0,0,0],"split_type":[0,0,0,0,0,0,0,0,0,0,0,0,0,0,0,0,0,0,0,0,0],"sum_hessian":[7.3908E4,1.4E1,7.3894E4,1E1,7.3884E4,2.4E1,7.386E4,9E0,1.5E1,6E0,7.3854E4,1E0,8E0,1.63E2,7.3691E4,2E0,6E0,9.5E1,6.8E1,2.3E1,7.3668E4],"tree_param":{"num_deleted":"0","num_feature":"13221","num_nodes":"21","size_leaf_vector":"1"}},{"base_weights":[1.352509E-4,9.689763E0,-7.3880557E-4,-5.4932156E0,1.7891133E-3,-2.5216305E0,-3.5511634E0,-5.6603856E0,4.242836E-3,-2.3726318E0,-1.4442021E0,-6.515549E0,-8.687518E-1,-1.6655514E-1,8.5684426E-2,4.037984E-2,-2.4473832E0,-3.7029064E0,-5.833666E0,9.266472E-2,-1.7027504E0,1.3025028E1,-1.6838323E-1,-3.8297493E0,9.1093265E-2,1.6817093E-1,-1.3182908E-1,-1.8086095E0,-3.9403555E-1,1.7192935E0,-2.5990992E0,2.9991153E-3,8.966561E-2,1.2575028E1,-1.0208913E-1,-1.4745612E0,-4.241178E0,-4.7620926E0,5.6198753E-2],"categories":[],"categories_nodes":[],"categories_segments":[],"categories_sizes":[],"default_left":[0,0,0,0,0,0,0,0,0,0,0,0,0,0,0,0,0,0,0,0,0,0,0,0,0,0,0,0,0,0,0,0,0,0,0,0,0,0,0],"id":11,"left_children":[1,-1,3,5,7,9,-1,11,13,-1,15,17,19,21,23,25,27,29,-1,31,-1,-1,33,35,37,-1,-1,-1,-1,-1,-1,-1,-1,-1,-1,-1,-1,-1,-1],"loss_changes":[1.043278E3,0E0,1.0261604E3,2.80542E1,1.0263716E3,3.55122E0,0E0,1.25463745E2,1.0271609E3,0E0,7.545347E0,2.0755872E2,1.1622106E1,9.570775E2,1.0592662E3,2.487771E-1,1.066124E0,7.850934E1,0E0,2.414054E-2,0E0,0E0,8.9272614E2,2.892793E2,1.0314802E3,0E0,0E0,0E0,0E0,0E0,0E0,0E0,0E0,0E0,0E0,0E0,0E0,0E0,0E0],"parents":[2147483647,0,0,2,2,3,3,4,4,5,5,7,7,8,8,10,10,11,11,12,12,13,13,14,14,15,15,16,16,17,17,19,19,22,22,23,23,24,24],"right_children":[2,-1,4,6,8,10,-1,12,14,-1,16,18,20,22,24,26,28,30,-1,32,-1,-1,34,36,38,-1,-1,-1,-1,-1,-1,-1,-1,-1,-1,-1,-1,-1,-1],"split_conditions":[2.00001E0,9.689763E0,2.00001E0,3.35E0,2.00001E0,2.55E0,-3.5511634E0,6.77E0,1.63E0,-2.3726318E0,2.75E0,6.69E0,7.59E0,2.00001E0,2.00001E0,2.67E0,3.07E0,5.78E0,-5.833666E0,7.46E0,-1.7027504E0,1.3025028E1,2.00001E0,4.08E0,2.00001E0,1.6817093E-1,-1.3182908E-1,-1.8086095E0,-3.9403555E-1,1.7192935E0,-2.5990992E0,2.9991153E-3,8.966561E-2,1.2575028E1,-1.0208913E-1,-1.4745612E0,-4.241178E0,-4.7620926E0,5.6198753E-2],"split_indices":[8815,0,5415,13220,11511,13220,0,13220,13220,0,13220,13220,13220,10392,6996,13220,13220,13220,0,13220,0,0,5228,13220,5138,0,0,0,0,0,0,0,0,0,0,0,0,0,0],"split_type":[0,0,0,0,0,0,0,0,0,0,0,0,0,0,0,0,0,0,0,0,0,0,0,0,0,0,0,0,0,0,0,0,0,0,0,0,0,0,0],"sum_hessian":[7.3908E4,3E0,7.3905E4,3.3E1,7.3872E4,5E0,2.8E1,3.1E1,7.3841E4,1E0,4E0,2.6E1,5E0,2.3841E4,5E4,2E0,2E0,1.5E1,1.1E1,4E0,1E0,1E0,2.384E4,6.8E1,4.9932E4,1E0,1E0,1E0,1E0,1E0,1.4E1,2E0,2E0,1E0,2.3839E4,4.9E1,1.9E1,1.5E1,4.9917E4],"tree_param":{"num_deleted":"0","num_feature":"13221","num_nodes":"39","size_leaf_vector":"1"}},{"base_weights":[1.672754E-4,-3.587259E0,4.0058596E-3,-2.6386201E0,-5.7822657E0,7.814157E0,2.947675E-3,-2.4148605E0,-1.9488883E0,-4.223758E0,-3.9937282E0,7.810782E0,1.8898041E-3,-2.3287125E-1,-2.0208204E0,-3.6689413E0,-1.6286541E0,1.2935013E1,8.385331E-4,-1.2569445E0,-1.1128647E0,-1.2313083E0,1.4669323E-1,8.476499E0,2.0917776E0,-5.028827E0,2.4285794E-3,1.0826758E0,-1.3759865E0,-2.311434E0,3.5273065E-3],"categories":[],"categories_nodes":[],"categories_segments":[],"categories_sizes":[],"default_left":[0,0,0,0,0,0,0,0,0,0,0,0,0,0,0,0,0,0,0,0,0,0,0,0,0,0,0,0,0,0,0],"id":12,"left_children":[1,3,5,7,9,-1,11,-1,13,15,-1,-1,17,-1,19,-1,21,23,25,-1,27,-1,-1,-1,-1,-1,29,-1,-1,-1,-1],"loss_changes":[1.0177884E3,1.4924207E2,1.0171408E3,4.665213E1,3.2130737E0,0E0,1.01642737E3,0E0,3.7064514E0,4.4025803E1,0E0,0E0,1.00367554E3,0E0,2.24823E-1,0E0,5.2616873E0,1.8352112E1,9.838483E2,0E0,2.1356905E1,0E0,0E0,0E0,0E0,0E0,9.8161304E2,0E0,0E0,0E0,0E0],"parents":[2147483647,0,0,1,1,2,2,3,3,4,4,6,6,8,8,9,9,12,12,14,14,16,16,17,17,18,18,20,20,26,26],"right_children":[2,4,6,8,10,-1,12,-1,14,16,-1,-1,18,-1,20,-1,22,24,26,-1,28,-1,-1,-1,-1,-1,30,-1,-1,-1,-1],"split_conditions":[2.00001E0,3.84E0,2.00001E0,3.03E0,4.33E0,7.814157E0,2.00001E0,-2.4148605E0,3.17E0,4.18E0,-3.9937282E0,7.810782E0,2.00001E0,-2.3287125E-1,3.7E0,-3.6689413E0,4.28E0,1.166E1,2.00001E0,-1.2569445E0,3.74E0,-1.2313083E0,1.4669323E-1,8.476499E0,2.0917776E0,-5.028827E0,2.00001E0,1.0826758E0,-1.3759865E0,-2.311434E0,3.5273065E-3],"split_indices":[9961,13220,3648,13220,13220,0,8408,0,13220,13220,0,0,11521,0,13220,0,13220,13220,4874,0,13220,0,0,0,0,0,7141,0,0,0,0],"split_type":[0,0,0,0,0,0,0,0,0,0,0,0,0,0,0,0,0,0,0,0,0,0,0,0,0,0,0,0,0,0,0],"sum_hessian":[7.3908E4,7.8E1,7.383E4,5.6E1,2.2E1,5E0,7.3825E4,1.7E1,3.9E1,1E1,1.2E1,5E0,7.382E4,2E0,3.7E1,5E0,5E0,5E0,7.3815E4,3.3E1,4E0,4E0,1E0,4E0,1E0,1.3E1,7.3802E4,1E0,3E0,6.5E1,7.3737E4],"tree_param":{"num_deleted":"0","num_feature":"13221","num_nodes":"31","size_leaf_vector":"1"}},{"base_weights":[1.469317E-4,-2.6551578E0,5.1500797E-3,3.4827874E0,-2.8628213E0,-4.9146943E0,7.819051E-3,-1.1239547E0,3.174068E0,-2.9768958E0,-9.350116E-1,-4.318417E0,-4.544317E0,7.122955E0,5.984998E-3,-4.2181015E0,-2.8106997E0,1.1750424E0,-3.3280804E0,-3.005803E0,-3.3872504E0,4.8902807E0,6.687222E0,-6.503215E0,7.1619744E-3,-1.1324054E0,-3.2633452E0,-1.042076E0,-2.9075859E0,2.0027978E0,-3.5773832E-1,-5.005563E-1,-2.0930114E0,5.1521907E0,4.4563523E-1,9.201498E0,6.329973E-3,-1.7882483E0,-1.2125486E0,-8.105361E-1,4.527977E-1,8.295966E-1,3.210658E0,6.105182E0,3.0528114E-3],"categories":[],"categories_nodes":[],"categories_segments":[],"categories_sizes":[],"default_left":[0,0,0,0,0,0,0,0,0,0,0,0,0,0,0,0,0,0,0,0,0,0,0,0,0,0,0,0,0,0,0,0,0,0,0,0,0,0,0,0,0,0,0,0,0],"id":13,"left_children":[1,3,5,7,9,11,13,-1,-1,15,17,19,-1,21,23,25,27,29,-1,-1,31,33,-1,-1,35,-1,-1,-1,37,-1,39,-1,-1,41,-1,-1,43,-1,-1,-1,-1,-1,-1,-1,-1],"loss_changes":[9.8188605E2,1.8714374E2,9.687199E2,5.831033E1,2.690503E1,3.0716858E1,9.62126E2,0E0,0E0,1.4342163E1,9.409785E1,5.5595703E0,0E0,1.16129944E2,9.4095795E2,2.672522E1,6.9154663E0,2.4401466E1,0E0,0E0,1.7358093E0,1.1381348E1,0E0,0E0,9.3992316E2,0E0,0E0,0E0,6.9262695E-1,0E0,6.543403E0,0E0,0E0,2.3484192E0,0E0,0E0,9.307858E2,0E0,0E0,0E0,0E0,0E0,0E0,0E0,0E0],"parents":[2147483647,0,0,1,1,2,2,3,3,4,4,5,5,6,6,9,9,10,10,11,11,13,13,14,14,15,15,16,16,17,17,20,20,21,21,24,24,28,28,30,30,33,33,36,36],"right_children":[2,4,6,8,10,12,14,-1,-1,16,18,20,-1,22,24,26,28,30,-1,-1,32,34,-1,-1,36,-1,-1,-1,38,-1,40,-1,-1,42,-1,-1,44,-1,-1,-1,-1,-1,-1,-1,-1],"split_conditions":[2.00001E0,4.56E0,2.00001E0,4.4E0,5.63E0,4.18E0,2.00001E0,-1.1239547E0,3.174068E0,4.94E0,5.94E0,2.75E0,-4.544317E0,4.56E0,2.00001E0,4.74E0,5E0,5.7E0,-3.3280804E0,-3.005803E0,2.84E0,4.5E0,6.687222E0,-6.503215E0,2.00001E0,-1.1324054E0,-3.2633452E0,-1.042076E0,5.48E0,2.0027978E0,5.78E0,-5.005563E-1,-2.0930114E0,2E-1,4.4563523E-1,9.201498E0,2.00001E0,-1.7882483E0,-1.2125486E0,-8.105361E-1,4.527977E-1,8.295966E-1,3.210658E0,6.105182E0,3.0528114E-3],"split_indices":[7214,13220,4043,13220,13220,13220,8563,0,0,13220,13220,13220,0,13220,9011,13220,13220,13220,0,0,13220,13220,0,0,9073,0,0,0,13220,0,13220,0,0,13220,0,0,1912,0,0,0,0,0,0,0,0],"split_type":[0,0,0,0,0,0,0,0,0,0,0,0,0,0,0,0,0,0,0,0,0,0,0,0,0,0,0,0,0,0,0,0,0,0,0,0,0,0,0,0,0,0,0,0,0],"sum_hessian":[7.3908E4,1.38E2,7.377E4,4E0,1.34E2,3.9E1,7.3731E4,1E0,3E0,1.26E2,8E0,3.4E1,5E0,1.8E1,7.3713E4,1.2E1,1.14E2,6E0,2E0,1.7E1,1.7E1,1.3E1,5E0,7E0,7.3706E4,5E0,7E0,1.1E1,1.03E2,2E0,4E0,1E0,1.6E1,1.2E1,1E0,3E0,7.3703E4,9.3E1,1E1,2E0,2E0,1E0,1.1E1,8E0,7.3695E4],"tree_param":{"num_deleted":"0","num_feature":"13221","num_nodes":"45","size_leaf_vector":"1"}},{"base_weights":[8.2466584E-5,3.9907265E0,-3.0516048E-3,4.3982406E0,3.7405524E0,6.601791E0,-4.9301754E-3,2.0443702E0,2.6941247E0,3.6530676E0,4.6891317E0,9.073719E0,-5.7497215E-3,2.2407444E0,1.500761E-1,2.3778982E0,4.4471914E-1,6.401923E0,-6.9065476E-3,7.9269296E-1,2.6222336E0,1.0056496E1,-8.133465E-3,2.209116E0,1.1865994E0,6.3599896E0,1.7125809E0,6.3931527E0,-5.5735013E-3],"categories":[],"categories_nodes":[],"categories_segments":[],"categories_sizes":[],"default_left":[0,0,0,0,0,0,0,0,0,0,0,0,0,0,0,0,0,0,0,0,0,0,0,0,0,0,0,0,0],"id":14,"left_children":[1,3,5,-1,7,9,11,13,-1,15,-1,-1,17,19,-1,-1,-1,-1,21,-1,23,25,27,-1,-1,-1,-1,-1,-1],"loss_changes":[9.243893E2,2.1039307E1,9.163634E2,0E0,6.2027344E1,4.658972E1,9.1545013E2,6.134041E0,0E0,4.286171E0,0E0,0E0,9.1184985E2,2.4994583E0,0E0,0E0,0E0,0E0,9.115597E2,0E0,2.3152924E-1,4.9730835E0,9.097612E2,0E0,0E0,0E0,0E0,0E0,0E0],"parents":[2147483647,0,0,1,1,2,2,4,4,5,5,6,6,7,7,9,9,12,12,13,13,18,18,20,20,21,21,22,22],"right_children":[2,4,6,-1,8,10,12,14,-1,16,-1,-1,18,20,-1,-1,-1,-1,22,-1,24,26,28,-1,-1,-1,-1,-1,-1],"split_conditions":[2.00001E0,2E-1,2.00001E0,4.3982406E0,2.94E0,4.45E0,2.00001E0,2.81E0,2.6941247E0,4.4E0,4.6891317E0,9.073719E0,2.00001E0,2.58E0,1.500761E-1,2.3778982E0,4.4471914E-1,6.401923E0,2.00001E0,7.9269296E-1,2.7E0,7.95E0,2.00001E0,2.209116E0,1.1865994E0,6.3599896E0,1.7125809E0,6.3931527E0,-5.5735013E-3],"split_indices":[10740,13220,13132,0,13220,13220,9759,13220,0,13220,0,0,497,13220,0,0,0,0,6345,0,13220,13220,10788,0,0,0,0,0,0],"split_type":[0,0,0,0,0,0,0,0,0,0,0,0,0,0,0,0,0,0,0,0,0,0,0,0,0,0,0,0,0],"sum_hessian":[7.3908E4,5.7E1,7.3851E4,2E0,5.5E1,2E1,7.3831E4,1.8E1,3.7E1,7E0,1.3E1,3E0,7.3828E4,1.6E1,2E0,6E0,1E0,7E0,7.3821E4,6E0,1E1,8E0,7.3813E4,2E0,8E0,7E0,1E0,7E0,7.3806E4],"tree_param":{"num_deleted":"0","num_feature":"13221","num_nodes":"29","size_leaf_vector":"1"}},{"base_weights":[6.9409725E-4,5.6979036E0,-5.9086643E-4,1.0368914E1,-1.2924518E-3,-1.6148015E0,6.0993247E-3,-2.2454853E0,-9.1964626E-1,1.0221391E1,5.404725E-3,-1.869732E0,-1.8849955E0,8.080392E-1,-1.3848755E0,-5.775463E0,7.448611E-3,3.9342295E-2,-1.1893559E0,-3.2021273E-2,2.2331774E0,-7.8344166E-1,-2.5482628E0,-3.9179637E0,3.9259307E0,1.2460353E1,4.130327E-3],"categories":[],"categories_nodes":[],"categories_segments":[],"categories_sizes":[],"default_left":[0,0,0,0,0,0,0,0,0,0,0,0,0,0,0,0,0,0,0,0,0,0,0,0,0,0,0],"id":15,"left_children":[1,-1,3,-1,5,7,9,11,13,-1,15,-1,17,19,21,23,25,-1,-1,-1,-1,-1,-1,-1,-1,-1,-1],"loss_changes":[9.018265E2,0E0,8.960507E2,0E0,8.813691E2,1.4568347E2,8.700523E2,4.937085E1,1.3132974E2,0E0,8.691864E2,0E0,2.4224426E1,8.8051315E1,2.3448349E1,2.843747E2,8.6196246E2,0E0,0E0,0E0,0E0,0E0,0E0,0E0,0E0,0E0,0E0],"parents":[2147483647,0,0,2,2,4,4,5,5,6,6,7,7,8,8,10,10,12,12,13,13,14,14,15,15,16,16],"right_children":[2,-1,4,-1,6,8,10,12,14,-1,16,-1,18,20,22,24,26,-1,-1,-1,-1,-1,-1,-1,-1,-1,-1],"split_conditions":[2.00001E0,5.6979036E0,2.00001E0,1.0368914E1,2.00001E0,2.12E0,2.00001E0,1.57E0,2.23E0,1.0221391E1,2.00001E0,-1.869732E0,1.61E0,2.21E0,3.2E0,8.67E0,2.00001E0,3.9342295E-2,-1.1893559E0,-3.2021273E-2,2.2331774E0,-7.8344166E-1,-2.5482628E0,-3.9179637E0,3.9259307E0,1.2460353E1,4.130327E-3],"split_indices":[11126,0,12469,0,11367,13220,10484,13220,13220,0,7264,0,13220,13220,13220,13220,6548,0,0,0,0,0,0,0,0,0,0],"split_type":[0,0,0,0,0,0,0,0,0,0,0,0,0,0,0,0,0,0,0,0,0,0,0,0,0,0,0],"sum_hessian":[7.3908E4,9E0,7.3899E4,2E0,7.3897E4,3.36E2,7.3561E4,1.75E2,1.61E2,2E0,7.3559E4,4.9E1,1.26E2,3.4E1,1.27E2,2.5E1,7.3534E4,6E0,1.2E2,2.7E1,7E0,1.25E2,2E0,2.4E1,1E0,1E0,7.3533E4],"tree_param":{"num_deleted":"0","num_feature":"13221","num_nodes":"27","size_leaf_vector":"1"}},{"base_weights":[7.461634E-4,1.0162688E1,5.865145E-5,6.2213893E0,-1.0638308E-3,-5.3480883E0,1.1076818E-3,-6.4032726E0,-1.7660292E0,8.436087E0,-2.627604E-4,-3.5360045E0,-5.7088933E0,6.741137E0,-2.2238474E0,6.193086E0,-1.3808777E-3,-2.4086723E0,-4.5750317E-1,5.5007844E0,-1.5735471E-3],"categories":[],"categories_nodes":[],"categories_segments":[],"categories_sizes":[],"default_left":[0,0,0,0,0,0,0,0,0,0,0,0,0,0,0,0,0,0,0,0,0],"id":16,"left_children":[1,-1,3,-1,5,7,9,11,-1,13,15,17,-1,-1,-1,-1,19,-1,-1,-1,-1],"loss_changes":[8.606276E2,0E0,8.6020953E2,0E0,8.5806854E2,5.7274902E1,8.539252E2,1.4478845E2,0E0,4.495053E2,8.524537E2,1.2862717E1,0E0,0E0,0E0,0E0,8.4088434E2,0E0,0E0,0E0,0E0],"parents":[2147483647,0,0,2,2,4,4,5,5,6,6,7,7,9,9,10,10,11,11,16,16],"right_children":[2,-1,4,-1,6,8,10,12,-1,14,16,18,-1,-1,-1,-1,20,-1,-1,-1,-1],"split_conditions":[2.00001E0,1.0162688E1,2.00001E0,6.2213893E0,2.00001E0,6.99E0,2.00001E0,6.77E0,-1.7660292E0,8.81E0,2.00001E0,6.69E0,-5.7088933E0,6.741137E0,-2.2238474E0,6.193086E0,2.00001E0,-2.4086723E0,-4.5750317E-1,5.5007844E0,-1.5735471E-3],"split_indices":[4116,0,828,0,7232,13220,6404,13220,0,13220,9062,13220,0,0,0,0,8046,0,0,0,0],"split_type":[0,0,0,0,0,0,0,0,0,0,0,0,0,0,0,0,0,0,0,0,0],"sum_hessian":[7.3908E4,2E0,7.3906E4,7E0,7.3899E4,2.9E1,7.387E4,1.9E1,1E1,1.1E1,7.3859E4,1.1E1,8E0,9E0,2E0,7E0,7.3852E4,9E0,2E0,9E0,7.3843E4],"tree_param":{"num_deleted":"0","num_feature":"13221","num_nodes":"21","size_leaf_vector":"1"}},{"base_weights":[5.9938163E-4,1.2960744E1,-2.7743756E-4,9.5205E0,4.0011522E-1,2.568237E0,-4.6987645E-3,2.2972085E0,4.5906653E0,6.1193676E0,-6.525343E-3,-1.567049E-1,2.425486E0,2.5191312E0,5.7813654E0,6.570402E0,-8.219879E-3,-6.640961E-1,4.447092E-1,2.5233293E0,9.818712E-1,3.4277582E0,5.1266084E0,1.2134586E1,-8.768528E-3,5.046501E-1,8.120685E-2,1.34123E0,2.2071133E0,-7.925254E-1,8.6089444E-1,2.6755898E0,1.0263894E0,4.28641E0,-6.192448E-3],"categories":[],"categories_nodes":[],"categories_segments":[],"categories_sizes":[],"default_left":[0,0,0,0,0,0,0,0,0,0,0,0,0,0,0,0,0,0,0,0,0,0,0,0,0,0,0,0,0,0,0,0,0,0,0],"id":17,"left_children":[1,3,5,-1,-1,7,9,11,-1,13,15,17,19,-1,-1,21,23,-1,25,27,29,31,-1,-1,33,-1,-1,-1,-1,-1,-1,-1,-1,-1,-1],"loss_changes":[8.3988354E2,1.6809528E2,8.392951E2,0E0,0E0,1.5737927E2,8.2533826E2,3.878351E1,0E0,1.08133545E2,8.220753E2,4.492133E0,1.3907166E1,0E0,0E0,8.857666E1,8.187326E2,0E0,4.992844E-1,2.7701416E1,1.1282545E1,8.3133545E0,0E0,0E0,8.187747E2,0E0,0E0,0E0,0E0,0E0,0E0,0E0,0E0,0E0,0E0],"parents":[2147483647,0,0,1,1,2,2,5,5,6,6,7,7,9,9,10,10,11,11,12,12,15,15,16,16,18,18,19,19,20,20,21,21,24,24],"right_children":[2,4,6,-1,-1,8,10,12,-1,14,16,18,20,-1,-1,22,24,-1,26,28,30,32,-1,-1,34,-1,-1,-1,-1,-1,-1,-1,-1,-1,-1],"split_conditions":[2.00001E0,1.286E1,2.00001E0,9.5205E0,4.0011522E-1,4.18E0,2.00001E0,2.25E0,4.5906653E0,4.74E0,2.00001E0,1.92E0,3.7E0,2.5191312E0,5.7813654E0,4.18E0,2.00001E0,-6.640961E-1,2.08E0,3.28E0,3.79E0,3.39E0,5.1266084E0,1.2134586E1,2.00001E0,5.046501E-1,8.120685E-2,1.34123E0,2.2071133E0,-7.925254E-1,8.6089444E-1,2.6755898E0,1.0263894E0,4.28641E0,-6.192448E-3],"split_indices":[11582,13220,13079,0,0,13220,10721,13220,0,13220,3796,13220,13220,0,0,13220,11425,0,13220,13220,13220,13220,0,0,6922,0,0,0,0,0,0,0,0,0,0],"split_type":[0,0,0,0,0,0,0,0,0,0,0,0,0,0,0,0,0,0,0,0,0,0,0,0,0,0,0,0,0,0,0,0,0,0,0],"sum_hessian":[7.3908E4,4E0,7.3904E4,3E0,1E0,1.26E2,7.3778E4,1.21E2,5E0,2.1E1,7.3757E4,6E0,1.15E2,1.5E1,6E0,1.8E1,7.3739E4,2E0,4E0,1.07E2,8E0,8E0,1E1,1E0,7.3738E4,1E0,3E0,8.8E1,1.9E1,1E0,7E0,4E0,4E0,1.5E1,7.3723E4],"tree_param":{"num_deleted":"0","num_feature":"13221","num_nodes":"35","size_leaf_vector":"1"}},{"base_weights":[9.379557E-4,7.0054317E0,-9.8905075E-6,-5.3072433E0,2.0734624E-3,-3.9299924E0,-3.0008569E0,-7.629982E0,3.520015E-3,2.2135046E0,-4.7077804E0,1.5048027E-2,-5.3432446E0,1.2096444E1,2.9741595E-3,-3.4482083E0,-3.898428E0,1.6144353E-1,-1.479003E-1,5.907941E0,1.134815E-3,-3.637708E0,-4.0011373E-1,7.1866403E0,2.8556983E0,7.6002054E0,1.6625792E-4],"categories":[],"categories_nodes":[],"categories_segments":[],"categories_sizes":[],"default_left":[0,0,0,0,0,0,0,0,0,0,0,0,0,0,0,0,0,0,0,0,0,0,0,0,0,0,0],"id":18,"left_children":[1,-1,3,5,7,-1,9,11,13,-1,15,17,-1,-1,19,21,-1,-1,-1,23,25,-1,-1,-1,-1,-1,-1],"loss_changes":[8.178695E2,0E0,8.1715576E2,6.3465637E1,8.156303E2,0E0,1.544003E2,1.3664331E2,8.1264905E2,0E0,1.3696289E-1,2.6564568E-1,0E0,0E0,8.0222833E2,5.4134773E1,0E0,0E0,0E0,1.0332074E2,8.021761E2,0E0,0E0,0E0,0E0,0E0,0E0],"parents":[2147483647,0,0,2,2,3,3,4,4,6,6,7,7,8,8,10,10,11,11,14,14,15,15,19,19,20,20],"right_children":[2,-1,4,6,8,-1,10,12,14,-1,16,18,-1,-1,20,22,-1,-1,-1,24,26,-1,-1,-1,-1,-1,-1],"split_conditions":[2.00001E0,7.0054317E0,2.00001E0,6.2E0,2.00001E0,-3.9299924E0,6.3E0,2.7E0,2.00001E0,2.2135046E0,7.59E0,2E-1,-5.3432446E0,1.2096444E1,2.00001E0,7.1E0,-3.898428E0,1.6144353E-1,-1.479003E-1,1.92E0,2.00001E0,-3.637708E0,-4.0011373E-1,7.1866403E0,2.8556983E0,7.6002054E0,1.6625792E-4],"split_indices":[8633,0,11441,13220,4377,0,13220,13220,4941,0,13220,13220,0,0,11662,13220,0,0,0,13220,1093,0,0,0,0,0,0],"split_type":[0,0,0,0,0,0,0,0,0,0,0,0,0,0,0,0,0,0,0,0,0,0,0,0,0,0,0],"sum_hessian":[7.3908E4,5E0,7.3903E4,2.8E1,7.3875E4,1.7E1,1.1E1,1.3E1,7.3862E4,2E0,9E0,2E0,1.1E1,1E0,7.3861E4,7E0,2E0,1E0,1E0,2.2E1,7.3839E4,3E0,4E0,2E0,2E1,4E0,7.3835E4],"tree_param":{"num_deleted":"0","num_feature":"13221","num_nodes":"27","size_leaf_vector":"1"}},{"base_weights":[6.696694E-4,7.5647817E0,-7.6340185E-4,2.6449852E0,5.560921E0,6.6455054E0,-2.3826992E-3,2.3965766E0,2.4840853E-1,5.393382E0,8.37948E0,-9.91376E0,-1.3093101E-3,4.1373463E0,2.262308E0,-6.9084277E0,-3.4086015E0,6.844381E0,-2.2359805E-3,-1.4084703E-1,2.7176075E0,-1.03870586E-1,-2.9638708E0,4.323689E0,-3.7000175E-3,1.9022259E0,1.361292E-1,6.3267884E0,-2.8199109E-3],"categories":[],"categories_nodes":[],"categories_segments":[],"categories_sizes":[],"default_left":[0,0,0,0,0,0,0,0,0,0,0,0,0,0,0,0,0,0,0,0,0,0,0,0,0,0,0,0,0],"id":19,"left_children":[1,3,5,7,-1,9,11,-1,-1,13,-1,15,17,-1,19,-1,21,-1,23,-1,25,-1,-1,-1,27,-1,-1,-1,-1],"loss_changes":[8.0117285E2,9.281244E1,7.9530566E2,1.33976555E1,0E0,8.966345E1,7.859683E2,0E0,0E0,6.435925E1,0E0,4.403412E1,7.810018E2,0E0,8.596298E0,0E0,1.4007191E1,0E0,7.7957025E2,0E0,6.047035E0,0E0,0E0,0E0,7.789472E2,0E0,0E0,0E0,0E0],"parents":[2147483647,0,0,1,1,2,2,3,3,5,5,6,6,9,9,11,11,12,12,14,14,16,16,18,18,20,20,24,24],"right_children":[2,4,6,8,-1,10,12,-1,-1,14,-1,16,18,-1,20,-1,22,-1,24,-1,26,-1,-1,-1,28,-1,-1,-1,-1],"split_conditions":[2.00001E0,4.88E0,2.00001E0,4.68E0,5.560921E0,7.95E0,2.00001E0,2.3965766E0,2.4840853E-1,6.58E0,8.37948E0,7.34E0,2.00001E0,4.1373463E0,6.77E0,-6.9084277E0,7.46E0,6.844381E0,2.00001E0,-1.4084703E-1,7.1E0,-1.03870586E-1,-2.9638708E0,4.323689E0,2.00001E0,1.9022259E0,1.361292E-1,6.3267884E0,-2.8199109E-3],"split_indices":[3731,13220,11343,13220,0,13220,1148,0,0,13220,0,13220,10768,0,13220,0,13220,0,12455,0,13220,0,0,0,6374,0,0,0,0],"split_type":[0,0,0,0,0,0,0,0,0,0,0,0,0,0,0,0,0,0,0,0,0,0,0,0,0,0,0,0,0],"sum_hessian":[7.3908E4,1.3E1,7.3895E4,4E0,9E0,1.7E1,7.3878E4,2E0,2E0,1.6E1,1E0,7E0,7.3871E4,1E1,6E0,5E0,2E0,5E0,7.3866E4,1E0,5E0,1E0,1E0,1.4E1,7.3852E4,4E0,1E0,6E0,7.3846E4],"tree_param":{"num_deleted":"0","num_feature":"13221","num_nodes":"29","size_leaf_vector":"1"}},{"base_weights":[6.752583E-4,1.3908408E1,-7.747634E-5,2.536975E0,9.4354105E0,-7.422266E0,1.3287559E-3,-3.4175975E0,-8.959133E0,8.357183E0,8.468438E-5,4.8736844E0,6.268692E0,1.3814703E1,-6.6326576E-4,4.36224E0,2.9402614E0,-1.3415761E0,1.1946147E1,2.5177982E0,-4.7604814E-3,-1.4710408E-1,2.2787483E0,1.1909814E0,4.2887087E0,6.758956E0,-3.406319E-3],"categories":[],"categories_nodes":[],"categories_segments":[],"categories_sizes":[],"default_left":[0,0,0,0,0,0,0,0,0,0,0,0,0,0,0,0,0,0,0,0,0,0,0,0,0,0,0],"id":20,"left_children":[1,3,5,-1,-1,7,9,-1,-1,11,13,15,-1,17,19,-1,21,-1,-1,23,25,-1,-1,-1,-1,-1,-1],"loss_changes":[7.73742E2,3.8729858E0,7.713905E2,0E0,0E0,9.6439026E1,7.681378E2,0E0,0E0,2.9190613E1,7.634161E2,6.4263E0,0E0,4.3586835E2,7.6235596E2,0E0,1.45911255E1,0E0,0E0,2.8185486E2,7.62097E2,0E0,0E0,0E0,0E0,0E0,0E0],"parents":[2147483647,0,0,1,1,2,2,5,5,6,6,9,9,10,10,11,11,13,13,14,14,16,16,19,19,20,20],"right_children":[2,4,6,-1,-1,8,10,-1,-1,12,14,16,-1,18,20,-1,22,-1,-1,24,26,-1,-1,-1,-1,-1,-1],"split_conditions":[2.00001E0,7.59E0,2.00001E0,2.536975E0,9.4354105E0,4.28E0,2.00001E0,-3.4175975E0,-8.959133E0,3.57E0,2.00001E0,2E-1,6.268692E0,6.2E0,2.00001E0,4.36224E0,2.81E0,-1.3415761E0,1.1946147E1,3.84E0,2.00001E0,-1.4710408E-1,2.2787483E0,1.1909814E0,4.2887087E0,6.758956E0,-3.406319E-3],"split_indices":[3681,13220,9363,0,0,13220,4158,0,0,13220,12010,13220,0,13220,10780,0,13220,0,0,13220,4161,0,0,0,0,0,0],"split_type":[0,0,0,0,0,0,0,0,0,0,0,0,0,0,0,0,0,0,0,0,0,0,0,0,0,0,0],"sum_hessian":[7.3908E4,3E0,7.3905E4,1E0,2E0,1.3E1,7.3892E4,1.2E1,1E0,1E1,7.3882E4,5E0,5E0,3E0,7.3879E4,1E0,4E0,1E0,2E0,1.19E2,7.376E4,1E0,3E0,1.08E2,1.1E1,5E0,7.3755E4],"tree_param":{"num_deleted":"0","num_feature":"13221","num_nodes":"27","size_leaf_vector":"1"}},{"base_weights":[7.465386E-4,7.3480344E0,-8.196596E-5,6.2091656E0,-1.062233E-3,6.706543E0,-1.9698944E-3,-7.342782E0,-1.1418803E-3,-7.036293E0,2.865729E-4,-4.7898486E-1,-4.760745E0,4.9183035E0,-5.604584E-4],"categories":[],"categories_nodes":[],"categories_segments":[],"categories_sizes":[],"default_left":[0,0,0,0,0,0,0,0,0,0,0,0,0,0,0],"id":21,"left_children":[1,-1,3,-1,5,-1,7,-1,9,11,13,-1,-1,-1,-1],"loss_changes":[7.498704E2,0E0,7.4973883E2,0E0,7.49832E2,0E0,7.486491E2,0E0,7.4255096E2,7.771777E1,7.3918835E2,0E0,0E0,0E0,0E0],"parents":[2147483647,0,0,2,2,4,4,6,6,8,8,9,9,10,10],"right_children":[2,-1,4,-1,6,-1,8,-1,10,12,14,-1,-1,-1,-1],"split_conditions":[2.00001E0,7.3480344E0,2.00001E0,6.2091656E0,2.00001E0,6.706543E0,2.00001E0,-7.342782E0,2.00001E0,2E-1,2.00001E0,-4.7898486E-1,-4.760745E0,4.9183035E0,-5.604584E-4],"split_indices":[11145,0,11203,0,12451,0,8373,0,3378,13220,8742,0,0,0,0],"split_type":[0,0,0,0,0,0,0,0,0,0,0,0,0,0,0],"sum_hessian":[7.3908E4,4E0,7.3904E4,6E0,7.3898E4,5E0,7.3893E4,4E0,7.3889E4,1.4E1,7.3875E4,2E0,1.2E1,1E1,7.3865E4],"tree_param":{"num_deleted":"0","num_feature":"13221","num_nodes":"15","size_leaf_vector":"1"}},{"base_weights":[4.6928538E-4,5.2263565E0,-1.440483E-3,9.381033E-1,5.931352E0,-4.907626E0,-2.2273454E-4,-2.8010732E-1,1.4060519E0,3.6638057E0,6.244686E-1,7.2703004E0,-1.042926E-3,1.2198927E0,3.115797E-1,-6.142212E0,-7.284794E-5,6.561785E0,-1.583424E-3,1.6545098E0,4.3080125E0,4.6798816E0,-1.7107812E-3],"categories":[],"categories_nodes":[],"categories_segments":[],"categories_sizes":[],"default_left":[0,0,0,0,0,0,0,0,0,0,0,0,0,0,0,0,0,0,0,0,0,0,0],"id":22,"left_children":[1,3,5,7,9,-1,11,-1,13,-1,-1,-1,15,-1,-1,-1,17,19,21,-1,-1,-1,-1],"loss_changes":[7.3763666E2,7.6062195E1,7.357745E2,3.9436278E0,1.3328125E1,0E0,7.342053E2,0E0,1.1685228E0,0E0,0E0,0E0,7.3349603E2,0E0,0E0,0E0,7.3215424E2,2.0183838E1,7.3045807E2,0E0,0E0,0E0,0E0],"parents":[2147483647,0,0,1,1,2,2,3,3,4,4,6,6,8,8,12,12,16,16,17,17,18,18],"right_children":[2,4,6,8,10,-1,12,-1,14,-1,-1,-1,16,-1,-1,-1,18,20,22,-1,-1,-1,-1],"split_conditions":[2.00001E0,2.67E0,2.00001E0,2.23E0,4.56E0,-4.907626E0,2.00001E0,-2.8010732E-1,2.28E0,3.6638057E0,6.244686E-1,7.2703004E0,2.00001E0,1.2198927E0,3.115797E-1,-6.142212E0,2.00001E0,2.97E0,2.00001E0,1.6545098E0,4.3080125E0,4.6798816E0,-1.7107812E-3],"split_indices":[7983,13220,10174,13220,13220,0,1457,0,13220,0,0,0,1394,0,0,0,8944,13220,2151,0,0,0,0],"split_type":[0,0,0,0,0,0,0,0,0,0,0,0,0,0,0,0,0,0,0,0,0,0,0],"sum_hessian":[7.3908E4,2.6E1,7.3882E4,4E0,2.2E1,1E1,7.3872E4,1E0,3E0,2.1E1,1E0,4E0,7.3868E4,1E0,2E0,6E0,7.3862E4,1.6E1,7.3846E4,3E0,1.3E1,1.1E1,7.3835E4],"tree_param":{"num_deleted":"0","num_feature":"13221","num_nodes":"23","size_leaf_vector":"1"}},{"base_weights":[3.5542916E-4,5.40331E0,-7.41265E-4,7.777332E0,-2.0044418E-3,5.685335E0,5.2106614E0,8.064529E0,-2.7321687E-3,1.6734787E0,3.797716E0,-5.328784E0,-9.2945236E-4,1.4095751E0,-5.976014E0,6.037868E0,-1.8832871E-3,1.0145022E0,2.541155E-1,-2.6557238E0,-4.096618E0,7.976128E0,-1.5620126E-3],"categories":[],"categories_nodes":[],"categories_segments":[],"categories_sizes":[],"default_left":[0,0,0,0,0,0,0,0,0,0,0,0,0,0,0,0,0,0,0,0,0,0,0],"id":23,"left_children":[1,-1,3,5,7,-1,9,-1,11,-1,-1,13,15,17,19,-1,21,-1,-1,-1,-1,-1,-1],"loss_changes":[7.2992505E2,0E0,7.26099E2,2.9314575E0,7.22884E2,0E0,1.3116608E0,0E0,7.0941064E2,0E0,0E0,1.1745532E2,7.0906195E2,1.1590099E-1,1.3793945E-1,0E0,7.071121E2,0E0,0E0,0E0,0E0,0E0,0E0],"parents":[2147483647,0,0,2,2,3,3,4,4,6,6,8,8,11,11,12,12,13,13,14,14,16,16],"right_children":[2,-1,4,6,8,-1,10,-1,12,-1,-1,14,16,18,20,-1,22,-1,-1,-1,-1,-1,-1],"split_conditions":[2.00001E0,5.40331E0,2.00001E0,6.03E0,2.00001E0,5.685335E0,6.69E0,8.064529E0,2.00001E0,1.6734787E0,3.797716E0,3.7E0,2.00001E0,3.2E0,5.26E0,6.037868E0,2.00001E0,1.0145022E0,2.541155E-1,-2.6557238E0,-4.096618E0,7.976128E0,-1.5620126E-3],"split_indices":[8795,0,11751,13220,3649,0,13220,0,1191,0,0,13220,1884,13220,13220,0,11227,0,0,0,0,0,0],"split_type":[0,0,0,0,0,0,0,0,0,0,0,0,0,0,0,0,0,0,0,0,0,0,0],"sum_hessian":[7.3908E4,8E0,7.39E4,1.1E1,7.3889E4,5E0,6E0,3E0,7.3886E4,3E0,3E0,2.4E1,7.3862E4,2E0,2.2E1,6E0,7.3856E4,1E0,1E0,1E1,1.2E1,3E0,7.3853E4],"tree_param":{"num_deleted":"0","num_feature":"13221","num_nodes":"23","size_leaf_vector":"1"}},{"base_weights":[5.9066265E-4,1.1276192E1,8.210183E-5,7.9714684E0,-6.3696824E-4,6.6401167E0,-2.0749357E-3,2.28591E0,5.8408604E0,4.6107564E0,-4.135936E-3,3.9506958E0,5.0451126E0,-5.6415453E0,-2.4561936E-3,1.5674433E0,2.5911608E0,-1.9603578E0,-4.6312823E0,7.930396E0,-1.9034098E-3],"categories":[],"categories_nodes":[],"categories_segments":[],"categories_sizes":[],"default_left":[0,0,0,0,0,0,0,0,0,0,0,0,0,0,0,0,0,0,0,0,0],"id":24,"left_children":[1,-1,3,-1,5,7,9,-1,-1,11,13,15,-1,17,19,-1,-1,-1,-1,-1,-1],"loss_changes":[7.0637744E2,0E0,7.060773E2,0E0,7.057465E2,1.03051025E2,7.0249475E2,0E0,0E0,4.9503296E1,6.993767E2,3.4889832E0,0E0,8.328461E1,6.9908844E2,0E0,0E0,0E0,0E0,0E0,0E0],"parents":[2147483647,0,0,2,2,4,4,5,5,6,6,9,9,10,10,11,11,13,13,14,14],"right_children":[2,-1,4,-1,6,8,10,-1,-1,12,14,16,-1,18,20,-1,-1,-1,-1,-1,-1],"split_conditions":[2.00001E0,1.1276192E1,2.00001E0,7.9714684E0,2.00001E0,5E0,2.00001E0,2.28591E0,5.8408604E0,4.45E0,2.00001E0,2.88E0,5.0451126E0,3.89E0,2.00001E0,1.5674433E0,2.5911608E0,-1.9603578E0,-4.6312823E0,7.930396E0,-1.9034098E-3],"split_indices":[4034,0,11745,0,10765,13220,8622,0,0,13220,9943,13220,0,13220,11158,0,0,0,0,0,0],"split_type":[0,0,0,0,0,0,0,0,0,0,0,0,0,0,0,0,0,0,0,0,0],"sum_hessian":[7.3908E4,1E0,7.3907E4,3E0,7.3904E4,1.5E1,7.3889E4,9E0,6E0,3.2E1,7.3857E4,2.9E1,3E0,2.1E1,7.3836E4,8E0,2.1E1,1.1E1,1E1,3E0,7.3833E4],"tree_param":{"num_deleted":"0","num_feature":"13221","num_nodes":"21","size_leaf_vector":"1"}},{"base_weights":[7.4938E-4,7.9152813E0,3.541501E-5,-4.2767916E0,2.2355178E-3,-4.469513E0,8.5616744E-1,-5.750082E0,3.8712397E-3,-3.874204E0,-5.0473566E0,-3.707001E0,-4.5760627E0,7.3110833E0,2.5846541E-3,-4.021075E0,2.91762E-1,-4.0656683E-1,-2.3524795E0,2.315708E0,6.086238E0,-7.053179E0,3.3808674E-3,1.9054185E-1,-2.499949E0,2.399059E0,2.8484288E-1,3.3634531E0,1.0266054E-3],"categories":[],"categories_nodes":[],"categories_segments":[],"categories_sizes":[],"default_left":[0,0,0,0,0,0,0,0,0,0,0,0,0,0,0,0,0,0,0,0,0,0,0,0,0,0,0,0,0],"id":25,"left_children":[1,-1,3,5,7,9,-1,11,13,15,-1,17,-1,19,21,23,-1,-1,-1,25,-1,-1,27,-1,-1,-1,-1,-1,-1],"loss_changes":[6.960884E2,0E0,6.95425E2,4.814856E1,6.950699E2,5.4253784E1,0E0,5.2246338E1,6.9426166E2,2.3729858E1,0E0,5.1153564E0,0E0,1.6046179E2,6.9128577E2,2.2156128E1,0E0,0E0,0E0,1.668885E1,0E0,0E0,6.907109E2,0E0,0E0,0E0,0E0,0E0,0E0],"parents":[2147483647,0,0,2,2,3,3,4,4,5,5,7,7,8,8,9,9,11,11,13,13,14,14,15,15,19,19,22,22],"right_children":[2,-1,4,6,8,10,-1,12,14,16,-1,18,-1,20,22,24,-1,-1,-1,26,-1,-1,28,-1,-1,-1,-1,-1,-1],"split_conditions":[2.00001E0,7.9152813E0,2.00001E0,5.7E0,2.00001E0,5.48E0,8.5616744E-1,4.4E0,2.00001E0,5.33E0,-5.0473566E0,3.35E0,-4.5760627E0,4.94E0,2.00001E0,3.2E0,2.91762E-1,-4.0656683E-1,-2.3524795E0,3.66E0,6.086238E0,-7.053179E0,2.00001E0,1.9054185E-1,-2.499949E0,2.399059E0,2.8484288E-1,3.3634531E0,1.0266054E-3],"split_indices":[8666,0,7197,13220,9967,13220,0,13220,3724,13220,0,13220,0,13220,4520,13220,0,0,0,13220,0,0,7963,0,0,0,0,0,0],"split_type":[0,0,0,0,0,0,0,0,0,0,0,0,0,0,0,0,0,0,0,0,0,0,0,0,0,0,0,0,0],"sum_hessian":[7.3908E4,3E0,7.3905E4,3.7E1,7.3868E4,3.6E1,1E0,2E1,7.3848E4,3.3E1,3E0,1.1E1,9E0,1.2E1,7.3836E4,3.2E1,1E0,1E0,1E1,5E0,7E0,4E0,7.3832E4,1E0,3.1E1,2E0,3E0,2.1E1,7.3811E4],"tree_param":{"num_deleted":"0","num_feature":"13221","num_nodes":"29","size_leaf_vector":"1"}},{"base_weights":[2.9269594E-4,-3.9383535E0,1.7140176E-3,5.3539553E0,-2.4898902E-5,2.8503118E0,4.351901E0,-8.730219E0,1.0388512E-3,4.4193716E0,1.2106885E0,-1.4075661E0,-5.541007E0,5.229108E0,-2.307148E-5,2.3442888E0,6.342523E-1,3.89589E0,-2.398274E-3,3.1452858E-1,1.7953315E0,-3.6397058E-1,6.893872E-1,2.509512E0,-2.6147468E0,5.2275004E0,-2.0765946E-3],"categories":[],"categories_nodes":[],"categories_segments":[],"categories_sizes":[],"default_left":[0,0,0,0,0,0,0,0,0,0,0,0,0,0,0,0,0,0,0,0,0,0,0,0,0,0,0],"id":26,"left_children":[1,-1,3,5,7,9,-1,11,13,-1,15,-1,-1,-1,17,19,21,23,25,-1,-1,-1,-1,-1,-1,-1,-1],"loss_changes":[6.8957196E2,0E0,6.87739E2,9.344513E1,6.860302E2,7.992336E1,0E0,7.3397217E0,6.8350946E2,0E0,5.047612E0,0E0,0E0,0E0,6.834327E2,1.9692783E0,5.8066573E0,1.2468744E2,6.836284E2,0E0,0E0,0E0,0E0,0E0,0E0,0E0,0E0],"parents":[2147483647,0,0,2,2,3,3,4,4,5,5,7,7,8,8,10,10,14,14,15,15,16,16,17,17,18,18],"right_children":[2,-1,4,6,8,10,-1,12,14,-1,16,-1,-1,-1,18,20,22,24,26,-1,-1,-1,-1,-1,-1,-1,-1],"split_conditions":[2.00001E0,-3.9383535E0,2.00001E0,3.31E0,2.00001E0,2.37E0,4.351901E0,6.99E0,2.00001E0,4.4193716E0,2.79E0,-1.4075661E0,-5.541007E0,5.229108E0,2.00001E0,2.5E0,2.88E0,5.86E0,2.00001E0,3.1452858E-1,1.7953315E0,-3.6397058E-1,6.893872E-1,2.509512E0,-2.6147468E0,5.2275004E0,-2.0765946E-3],"split_indices":[375,0,7966,13220,9720,13220,0,13220,4710,0,13220,0,0,0,4181,13220,13220,13220,3794,0,0,0,0,0,0,0,0],"split_type":[0,0,0,0,0,0,0,0,0,0,0,0,0,0,0,0,0,0,0,0,0,0,0,0,0,0,0],"sum_hessian":[7.3908E4,1.5E1,7.3893E4,2.3E1,7.387E4,1.1E1,1.2E1,8E0,7.3862E4,2E0,9E0,1E0,7E0,8E0,7.3854E4,2E0,7E0,4.4E1,7.381E4,1E0,1E0,2E0,5E0,4.3E1,1E0,8E0,7.3802E4],"tree_param":{"num_deleted":"0","num_feature":"13221","num_nodes":"27","size_leaf_vector":"1"}},{"base_weights":[2.6136514E-4,8.705724E0,-7.9882925E-4,6.168126E0,8.701953E0,-4.125826E0,1.435092E-3,7.464859E0,2.0034523E0,1.8351528E-1,-4.8916955E0,7.231059E0,1.6242366E-4,1.7240762E0,8.5008335E-1,-2.5207312E0,2.841883E0,-6.9201784E0,-3.8846345E0,4.929812E0,5.4565277E0,7.815903E0,-5.43164E-4,-7.599667E-1,1.9778519E0,3.0215073E-1,-3.2968132E0,2.8807223E0,5.883748E-1,-8.2618505E-1,-4.429856E0,-1.7049523E-1,-4.3626924E0,4.9437313E0,2.453307E0,7.8021474E0,-1.247567E-3,1.6400334E0,1.4003335E-1,-1.1612515E0,1.4331871E0,-9.9927783E-1,1.5288152E0,-1.1148844E0,-2.7121444E0,8.577157E-2,2.1436477E0,6.356579E0,-1.265113E-3],"categories":[],"categories_nodes":[],"categories_segments":[],"categories_sizes":[],"default_left":[0,0,0,0,0,0,0,0,0,0,0,0,0,0,0,0,0,0,0,0,0,0,0,0,0,0,0,0,0,0,0,0,0,0,0,0,0,0,0,0,0,0,0,0,0,0,0,0,0],"id":27,"left_children":[1,3,5,7,-1,9,11,-1,13,15,17,19,21,-1,23,25,27,29,31,33,-1,-1,35,-1,37,39,-1,-1,41,-1,-1,-1,43,-1,45,-1,47,-1,-1,-1,-1,-1,-1,-1,-1,-1,-1,-1,-1],"loss_changes":[6.821488E2,4.2948364E1,6.810025E2,1.8408435E2,0E0,1.3291339E2,6.795967E2,0E0,3.577959E0,5.7485794E1,4.257306E1,1.0905701E1,6.787791E2,0E0,1.2053735E1,3.5240746E1,1.4836475E1,1.5493927E1,4.17912E1,4.5358566E1,0E0,0E0,6.764653E2,0E0,3.3160772E0,1.8629059E1,0E0,0E0,1.7493843E1,0E0,0E0,0E0,2.8167725E-1,0E0,1.5007072E1,0E0,6.736482E2,0E0,0E0,0E0,0E0,0E0,0E0,0E0,0E0,0E0,0E0,0E0,0E0],"parents":[2147483647,0,0,1,1,2,2,3,3,5,5,6,6,8,8,9,9,10,10,11,11,12,12,14,14,15,15,16,16,17,17,18,18,19,19,22,22,24,24,25,25,28,28,32,32,34,34,36,36],"right_children":[2,4,6,8,-1,10,12,-1,14,16,18,20,22,-1,24,26,28,30,32,34,-1,-1,36,-1,38,40,-1,-1,42,-1,-1,-1,44,-1,46,-1,48,-1,-1,-1,-1,-1,-1,-1,-1,-1,-1,-1,-1],"split_conditions":[2.00001E0,7.59E0,2.00001E0,5.94E0,8.701953E0,4.08E0,2.00001E0,7.464859E0,6.69E0,3.89E0,4.5E0,5.33E0,2.00001E0,1.7240762E0,7.1E0,3.74E0,3.99E0,4.13E0,4.56E0,2E-1,5.4565277E0,7.815903E0,2.00001E0,-7.599667E-1,7.34E0,3.28E0,-3.2968132E0,2.8807223E0,4.03E0,-8.2618505E-1,-4.429856E0,-1.7049523E-1,4.61E0,4.9437313E0,3.79E0,7.8021474E0,2.00001E0,1.6400334E0,1.4003335E-1,-1.1612515E0,1.4331871E0,-9.9927783E-1,1.5288152E0,-1.1148844E0,-2.7121444E0,8.577157E-2,2.1436477E0,6.356579E0,-1.265113E-3],"split_indices":[12680,13220,11451,13220,0,13220,11730,0,13220,13220,13220,13220,815,0,13220,13220,13220,13220,13220,13220,0,0,2529,0,13220,13220,0,0,13220,0,0,0,13220,0,13220,0,1763,0,0,0,0,0,0,0,0,0,0,0,0],"split_type":[0,0,0,0,0,0,0,0,0,0,0,0,0,0,0,0,0,0,0,0,0,0,0,0,0,0,0,0,0,0,0,0,0,0,0,0,0,0,0,0,0,0,0,0,0,0,0,0,0],"sum_hessian":[7.3908E4,8E0,7.39E4,7E0,1E0,3.9E1,7.3861E4,2E0,5E0,6E0,3.3E1,1.2E1,7.3849E4,2E0,3E0,3E0,3E0,9E0,2.4E1,7E0,5E0,3E0,7.3846E4,1E0,2E0,2E0,1E0,1E0,2E0,1E0,8E0,3E0,2.1E1,2E0,5E0,3E0,7.3843E4,1E0,1E0,1E0,1E0,1E0,1E0,2E0,1.9E1,2E0,3E0,5E0,7.3838E4],"tree_param":{"num_deleted":"0","num_feature":"13221","num_nodes":"49","size_leaf_vector":"1"}},{"base_weights":[7.0864405E-4,1.4964595E1,1.01227095E-4,1.2335677E1,1.1324582E0,1.1591277E1,-6.829898E-4,9.40406E0,2.187217E0,5.3939123E0,-2.3623798E-3,2.7891235E0,6.5376368E0,1.0970677E1,-2.857389E-3,8.9559E0,-3.463594E-3,8.936837E0,-2.4411252E-3],"categories":[],"categories_nodes":[],"categories_segments":[],"categories_sizes":[],"default_left":[0,0,0,0,0,0,0,0,0,0,0,0,0,0,0,0,0,0,0],"id":28,"left_children":[1,3,5,-1,-1,7,9,-1,-1,11,13,-1,-1,-1,15,-1,17,-1,-1],"loss_changes":[6.717809E2,1.8069043E2,6.7182227E2,0E0,0E0,1.05047E2,6.695465E2,0E0,0E0,4.367578E1,6.6883405E2,0E0,0E0,0E0,6.686842E2,0E0,6.658954E2,0E0,0E0],"parents":[2147483647,0,0,1,1,2,2,5,5,6,6,9,9,10,10,14,14,16,16],"right_children":[2,4,6,-1,-1,8,10,-1,-1,12,14,-1,-1,-1,16,-1,18,-1,-1],"split_conditions":[2.00001E0,2E-1,2.00001E0,1.2335677E1,1.1324582E0,7.84E0,2.00001E0,9.40406E0,2.187217E0,9.73E0,2.00001E0,2.7891235E0,6.5376368E0,1.0970677E1,2.00001E0,8.9559E0,2.00001E0,8.936837E0,-2.4411252E-3],"split_indices":[609,13220,6076,0,0,13220,10838,0,0,13220,12380,0,0,0,8333,0,1960,0,0],"split_type":[0,0,0,0,0,0,0,0,0,0,0,0,0,0,0,0,0,0,0],"sum_hessian":[7.3908E4,2E0,7.3906E4,1E0,1E0,4E0,7.3902E4,2E0,2E0,2.2E1,7.388E4,2.1E1,1E0,1E0,7.3879E4,2E0,7.3877E4,2E0,7.3875E4],"tree_param":{"num_deleted":"0","num_feature":"13221","num_nodes":"19","size_leaf_vector":"1"}},{"base_weights":[1.1393843E-3,1.1527575E1,3.5955463E-4,9.893066E0,2.7241814E0,5.364961E0,-1.3104668E-3,2.0575945E0,3.9416888E-1,3.1566155E0,5.0696583E0,-5.7324877E0,2.4136968E-4,8.5188484E-1,2.067396E0,-6.1443014E0,6.275946E-1,8.837052E0,-3.568375E-4,1.08641E0,-3.197136E-1,-2.9849534E0,-4.4237103E0,-8.059548E0,7.344151E-4,-2.1418228E0,1.5706617E-1,-5.9077315E0,2.406145E0,-3.7078264E0,1.2944229E-3],"categories":[],"categories_nodes":[],"categories_segments":[],"categories_sizes":[],"default_left":[0,0,0,0,0,0,0,0,0,0,0,0,0,0,0,0,0,0,0,0,0,0,0,0,0,0,0,0,0,0,0],"id":29,"left_children":[1,3,5,-1,7,9,11,-1,-1,13,-1,15,17,19,-1,21,-1,-1,23,-1,-1,25,-1,27,29,-1,-1,-1,-1,-1,-1],"loss_changes":[6.6433856E2,1.7344482E2,6.621218E2,0E0,2.1201954E0,1.2999469E2,6.5710565E2,0E0,0E0,7.0572357E0,0E0,6.2256348E1,6.507842E2,4.947895E0,0E0,5.1739258E1,0E0,0E0,6.495937E2,0E0,0E0,1.4224171E1,0E0,2.5513306E2,6.4951373E2,0E0,0E0,0E0,0E0,0E0,0E0],"parents":[2147483647,0,0,1,1,2,2,4,4,5,5,6,6,9,9,11,11,12,12,13,13,15,15,18,18,21,21,23,23,24,24],"right_children":[2,4,6,-1,8,10,12,-1,-1,14,-1,16,18,20,-1,22,-1,-1,24,-1,-1,26,-1,28,30,-1,-1,-1,-1,-1,-1],"split_conditions":[2.00001E0,5.78E0,2.00001E0,9.893066E0,6.11E0,4.28E0,2.00001E0,2.0575945E0,3.9416888E-1,2.94E0,5.0696583E0,4.4E0,2.00001E0,2E-1,2.067396E0,2.72E0,6.275946E-1,8.837052E0,2.00001E0,1.08641E0,-3.197136E-1,2.7E0,-4.4237103E0,7.84E0,2.00001E0,-2.1418228E0,1.5706617E-1,-5.9077315E0,2.406145E0,-3.7078264E0,1.2944229E-3],"split_indices":[6392,13220,13057,0,13220,13220,1407,0,0,13220,0,13220,6375,13220,0,13220,0,0,7221,0,0,13220,0,13220,678,0,0,0,0,0,0],"split_type":[0,0,0,0,0,0,0,0,0,0,0,0,0,0,0,0,0,0,0,0,0,0,0,0,0,0,0,0,0,0,0],"sum_hessian":[7.3908E4,4E0,7.3904E4,2E0,2E0,2.2E1,7.3882E4,1E0,1E0,1.4E1,8E0,1.9E1,7.3863E4,2E0,1.2E1,1.8E1,1E0,2E0,7.3861E4,1E0,1E0,6E0,1.2E1,9E0,7.3852E4,5E0,1E0,8E0,1E0,1.6E1,7.3836E4],"tree_param":{"num_deleted":"0","num_feature":"13221","num_nodes":"31","size_leaf_vector":"1"}},{"base_weights":[6.7345746E-4,-7.06743E0,1.9168729E-3,-4.6687846E0,-1.0755352E1,8.990686E0,9.436414E-4,-2.856814E0,-3.3329604E0,2.1834006E0,6.884339E0,-2.2749162E0,4.7692773E-3,-2.833979E0,-9.233145E-1,-2.0596042E0,-3.3476834E0,-5.7316303E0,5.6762286E-3,-1.5756178E0,-1.5234231E0,-7.9870925E0,6.759887E-3,-5.5520594E-1,-1.0930648E0,-5.062197E-1,-5.2122355E0,-2.3913822E0,5.35575E-3],"categories":[],"categories_nodes":[],"categories_segments":[],"categories_sizes":[],"default_left":[0,0,0,0,0,0,0,0,0,0,0,0,0,0,0,0,0,0,0,0,0,0,0,0,0,0,0,0,0],"id":30,"left_children":[1,3,5,7,-1,9,11,13,-1,-1,-1,15,17,-1,-1,19,-1,-1,21,-1,23,25,27,-1,-1,-1,-1,-1,-1],"loss_changes":[6.495694E2,2.5489258E2,6.464538E2,3.3986816E0,0E0,6.45614E1,6.4334235E2,7.491192E0,0E0,0E0,0E0,7.673572E1,6.3947943E2,0E0,0E0,3.1836823E1,0E0,0E0,6.3893005E2,0E0,9.555847E0,4.267206E1,6.379151E2,0E0,0E0,0E0,0E0,0E0,0E0],"parents":[2147483647,0,0,1,1,2,2,3,3,5,5,6,6,7,7,11,11,12,12,15,15,18,18,20,20,21,21,22,22],"right_children":[2,4,6,8,-1,10,12,14,-1,-1,-1,16,18,-1,-1,20,-1,-1,22,-1,24,26,28,-1,-1,-1,-1,-1,-1],"split_conditions":[2.00001E0,5.13E0,2.00001E0,1.73E0,-1.0755352E1,4.03E0,2.00001E0,2E-1,-3.3329604E0,2.1834006E0,6.884339E0,2.88E0,2.00001E0,-2.833979E0,-9.233145E-1,1.85E0,-3.3476834E0,-5.7316303E0,2.00001E0,-1.5756178E0,2.01E0,6.88E0,2.00001E0,-5.5520594E-1,-1.0930648E0,-5.062197E-1,-5.2122355E0,-2.3913822E0,5.35575E-3],"split_indices":[737,13220,12691,13220,0,13220,12959,13220,0,0,0,13220,1230,0,0,13220,0,0,8430,0,13220,13220,9371,0,0,0,0,0,0],"split_type":[0,0,0,0,0,0,0,0,0,0,0,0,0,0,0,0,0,0,0,0,0,0,0,0,0,0,0,0,0],"sum_hessian":[7.3908E4,1.2E1,7.3896E4,1.1E1,1E0,7E0,7.3889E4,5E0,6E0,3E0,4E0,1.23E2,7.3766E4,1E0,4E0,1.17E2,6E0,6E0,7.376E4,5.5E1,6.2E1,9E0,7.3751E4,2.2E1,4E1,1E0,8E0,3.9E1,7.3712E4],"tree_param":{"num_deleted":"0","num_feature":"13221","num_nodes":"29","size_leaf_vector":"1"}},{"base_weights":[-1.2558633E-4,1.0303488E1,-9.6209795E-4,7.4489894E0,2.4322E0,-5.042687E0,6.140278E-5,1.0689414E1,-4.2078568E-4,9.522512E0,-1.3229513E-3,6.2193756E0,1.33915E0,8.718111E0,-1.9129495E-3,8.717073E0,-1.5017457E-3],"categories":[],"categories_nodes":[],"categories_segments":[],"categories_sizes":[],"default_left":[0,0,0,0,0,0,0,0,0,0,0,0,0,0,0,0,0],"id":31,"left_children":[1,3,5,-1,-1,-1,7,-1,9,11,13,-1,-1,-1,15,-1,-1],"loss_changes":[6.370384E2,2.88526E1,6.3564923E2,0E0,0E0,0E0,6.348103E2,0E0,6.3486395E2,1.9892334E1,6.335199E2,0E0,0E0,0E0,6.334205E2,0E0,0E0],"parents":[2147483647,0,0,1,1,2,2,6,6,8,8,9,9,10,10,14,14],"right_children":[2,4,6,-1,-1,-1,8,-1,10,12,14,-1,-1,-1,16,-1,-1],"split_conditions":[2.00001E0,7.34E0,2.00001E0,7.4489894E0,2.4322E0,-5.042687E0,2.00001E0,1.0689414E1,2.00001E0,7.22E0,2.00001E0,6.2193756E0,1.33915E0,8.718111E0,2.00001E0,8.717073E0,-1.5017457E-3],"split_indices":[7952,13220,7207,0,0,0,456,0,8645,13220,6308,0,0,0,4853,0,0],"split_type":[0,0,0,0,0,0,0,0,0,0,0,0,0,0,0,0,0],"sum_hessian":[7.3908E4,5E0,7.3903E4,3E0,2E0,8E0,7.3895E4,1E0,7.3894E4,6E0,7.3888E4,5E0,1E0,2E0,7.3886E4,2E0,7.3884E4],"tree_param":{"num_deleted":"0","num_feature":"13221","num_nodes":"17","size_leaf_vector":"1"}},{"base_weights":[4.979259E-4,8.691725E0,-9.007828E-5,-1.8415649E0,4.5309076E-3,-3.4320464E0,-9.6188736E-1,5.905691E0,3.089703E-3,-8.536139E-1,-5.193356E0,4.680534E0,4.8929954E0,7.505244E0,2.4109562E-3,-4.194409E-1,-1.6967092E0,3.1679444E0,4.337185E-1,-5.6644945E0,3.307875E-3,-1.002501E0,-1.7629686E-1,-1.1456152E0,-2.953163E-1,8.6455965E0,1.6328312E-3],"categories":[],"categories_nodes":[],"categories_segments":[],"categories_sizes":[],"default_left":[0,0,0,0,0,0,0,0,0,0,0,0,0,0,0,0,0,0,0,0,0,0,0,0,0,0,0],"id":32,"left_children":[1,-1,3,5,7,-1,9,11,13,15,-1,17,-1,-1,19,21,23,-1,-1,-1,25,-1,-1,-1,-1,-1,-1],"loss_changes":[6.295329E2,0E0,6.289147E2,6.256883E2,6.2697943E2,0E0,1.19231155E2,1.1433716E1,6.25599E2,5.4561752E1,0E0,2.9393036E1,0E0,0E0,6.24282E2,1.5385361E1,1.2123352E1,0E0,0E0,0E0,6.226254E2,0E0,0E0,0E0,0E0,0E0,0E0],"parents":[2147483647,0,0,2,2,3,3,4,4,6,6,7,7,8,8,9,9,11,11,14,14,15,15,16,16,20,20],"right_children":[2,-1,4,6,8,-1,10,12,14,16,-1,18,-1,-1,20,22,24,-1,-1,-1,26,-1,-1,-1,-1,-1,-1],"split_conditions":[2.00001E0,8.691725E0,2.00001E0,2E-1,2.00001E0,-3.4320464E0,3.31E0,3.99E0,2.00001E0,1.67E0,-5.193356E0,3.89E0,4.8929954E0,7.505244E0,2.00001E0,4.3E-1,2.12E0,3.1679444E0,4.337185E-1,-5.6644945E0,2.00001E0,-1.002501E0,-1.7629686E-1,-1.1456152E0,-2.953163E-1,8.6455965E0,1.6328312E-3],"split_indices":[13044,0,1142,13220,13142,0,13220,13220,6063,13220,0,13220,0,0,11622,13220,13220,0,0,0,9079,0,0,0,0,0,0],"split_type":[0,0,0,0,0,0,0,0,0,0,0,0,0,0,0,0,0,0,0,0,0,0,0,0,0,0,0],"sum_hessian":[7.3908E4,2E0,7.3906E4,1.84E2,7.3722E4,3.3E1,1.51E2,1.7E1,7.3705E4,1.5E2,1E0,1.3E1,4E0,3E0,7.3702E4,1E2,5E1,1.1E1,2E0,6E0,7.3696E4,8E0,9.2E1,4.2E1,8E0,2E0,7.3694E4],"tree_param":{"num_deleted":"0","num_feature":"13221","num_nodes":"27","size_leaf_vector":"1"}},{"base_weights":[4.2159518E-4,-6.1091814E0,1.2482611E-3,6.687786E0,4.941805E-4,6.1001067E0,-3.3129618E-4,7.46031E0,-1.0043919E-3,1.1115137E1,-1.7566076E-3,8.47027E0,2.644868E0,3.042021E0,-2.0426973E-3],"categories":[],"categories_nodes":[],"categories_segments":[],"categories_sizes":[],"default_left":[0,0,0,0,0,0,0,0,0,0,0,0,0,0,0],"id":33,"left_children":[1,-1,3,-1,5,-1,7,-1,9,11,13,-1,-1,-1,-1],"loss_changes":[6.221369E2,0E0,6.21104E2,0E0,6.2017847E2,0E0,6.184689E2,0E0,6.178848E2,3.8441895E1,6.1755426E2,0E0,0E0,0E0,0E0],"parents":[2147483647,0,0,2,2,4,4,6,6,8,8,9,9,10,10],"right_children":[2,-1,4,-1,6,-1,8,-1,10,12,14,-1,-1,-1,-1],"split_conditions":[2.00001E0,-6.1091814E0,2.00001E0,6.687786E0,2.00001E0,6.1001067E0,2.00001E0,7.46031E0,2.00001E0,1.039E1,2.00001E0,8.47027E0,2.644868E0,3.042021E0,-2.0426973E-3],"split_indices":[3395,0,8728,0,11118,0,13077,0,1171,13220,3821,0,0,0,0],"split_type":[0,0,0,0,0,0,0,0,0,0,0,0,0,0,0],"sum_hessian":[7.3908E4,5E0,7.3903E4,4E0,7.3899E4,5E0,7.3894E4,3E0,7.3891E4,4E0,7.3887E4,2E0,2E0,2.3E1,7.3864E4],"tree_param":{"num_deleted":"0","num_feature":"13221","num_nodes":"15","size_leaf_vector":"1"}},{"base_weights":[5.513541E-4,-6.084907E0,1.3747441E-3,7.489668E0,2.6000416E-4,1.849308E0,9.373639E0,3.6581986E0,-2.0185024E-3,2.3862977E0,-1.3602768E0,6.358598E0,2.4164258E-1,2.0354276E0,4.8281984E0,8.593165E0,-2.6003793E-3,6.302401E0,3.080982E-1,6.5013905E0,3.167765E0,6.650783E0,-3.3510746E-3,4.4557967E0,1.6218194E0,4.1670093E-1,-6.148423E-1,2.845816E0,6.1172853E0,2.7718928E-1,2.6846747E0,8.576299E0,-2.3591355E-3],"categories":[],"categories_nodes":[],"categories_segments":[],"categories_sizes":[],"default_left":[0,0,0,0,0,0,0,0,0,0,0,0,0,0,0,0,0,0,0,0,0,0,0,0,0,0,0,0,0,0,0,0,0],"id":34,"left_children":[1,-1,3,5,7,9,11,13,15,-1,-1,-1,-1,17,19,-1,21,23,25,27,29,-1,31,-1,-1,-1,-1,-1,-1,-1,-1,-1,-1],"loss_changes":[6.172186E2,0E0,6.169117E2,9.955432E1,6.158871E2,4.405345E1,8.357666E1,7.751007E1,6.155525E2,0E0,0E0,0E0,0E0,1.5283807E2,5.1638977E1,0E0,6.1467584E2,4.1989594E0,8.951873E0,2.9589142E1,5.0967285E1,0E0,6.13253E2,0E0,0E0,0E0,0E0,0E0,0E0,0E0,0E0,0E0,0E0],"parents":[2147483647,0,0,2,2,3,3,4,4,5,5,6,6,7,7,8,8,13,13,14,14,16,16,17,17,18,18,19,19,20,20,22,22],"right_children":[2,-1,4,6,8,10,12,14,16,-1,-1,-1,-1,18,20,-1,22,24,26,28,30,-1,32,-1,-1,-1,-1,-1,-1,-1,-1,-1,-1],"split_conditions":[2.00001E0,-6.084907E0,2.00001E0,8.2E0,2.00001E0,8.07E0,8.81E0,3.53E0,2.00001E0,2.3862977E0,-1.3602768E0,6.358598E0,2.4164258E-1,3.07E0,4.88E0,8.593165E0,2.00001E0,2.94E0,3.45E0,4.5E0,5.78E0,6.650783E0,2.00001E0,4.4557967E0,1.6218194E0,4.1670093E-1,-6.148423E-1,2.845816E0,6.1172853E0,2.7718928E-1,2.6846747E0,8.576299E0,-2.3591355E-3],"split_indices":[2115,0,8303,13220,10797,13220,13220,13220,12304,0,0,0,0,13220,13220,0,12274,13220,13220,13220,13220,0,955,0,0,0,0,0,0,0,0,0,0],"split_type":[0,0,0,0,0,0,0,0,0,0,0,0,0,0,0,0,0,0,0,0,0,0,0,0,0,0,0,0,0,0,0,0,0],"sum_hessian":[7.3908E4,5E0,7.3903E4,1E1,7.3893E4,3E0,7E0,4.5E1,7.3848E4,2E0,1E0,6E0,1E0,2E1,2.5E1,2E0,7.3846E4,5E0,1.5E1,1.1E1,1.4E1,4E0,7.3842E4,3E0,2E0,1.2E1,3E0,9E0,2E0,5E0,9E0,2E0,7.384E4],"tree_param":{"num_deleted":"0","num_feature":"13221","num_nodes":"33","size_leaf_vector":"1"}},{"base_weights":[8.0452795E-4,-4.114886E0,2.0111466E-3,7.139373E0,8.519238E-4,2.5928383E0,6.7522607E0,-1.2156041E0,7.639709E-3,1.1586634E0,1.7608654E0,-1.43173E0,3.3073952E0,-3.2038164E0,1.0220353E-2,1.0735846E0,-3.078747E-2,-7.622499E-1,-1.518533E0,3.2491467E0,-2.6780212E-1,-4.040834E0,-2.6349163E0,1.0461734E1,9.745507E-3,-7.539952E-1,2.185269E0,-8.390952E-1,-1.1096731E0,-4.0465993E-1,7.735846E-1,-7.232275E-1,-2.7623818E0,-1.6309972E0,1.3539964E-1,-3.806044E0,6.626179E-3],"categories":[],"categories_nodes":[],"categories_segments":[],"categories_sizes":[],"default_left":[0,0,0,0,0,0,0,0,0,0,0,0,0,0,0,0,0,0,0,0,0,0,0,0,0,0,0,0,0,0,0,0,0,0,0,0,0],"id":35,"left_children":[1,-1,3,5,7,9,-1,11,13,15,-1,17,19,21,23,-1,-1,25,27,-1,29,31,33,-1,35,-1,-1,-1,-1,-1,-1,-1,-1,-1,-1,-1,-1],"loss_changes":[6.116946E2,0E0,6.1140247E2,1.9529572E2,6.1008905E2,3.237152E-2,0E0,4.0552576E2,6.089825E2,2.3810067E0,0E0,2.1622803E1,1.4463371E2,1.7447327E1,6.0734753E2,0E0,0E0,1.0692204E2,1.1158142E1,0E0,5.934905E0,2.9578857E1,9.680481E0,0E0,6.055617E2,0E0,0E0,0E0,0E0,0E0,0E0,0E0,0E0,0E0,0E0,0E0,0E0],"parents":[2147483647,0,0,2,2,3,3,4,4,5,5,7,7,8,8,9,9,11,11,12,12,13,13,14,14,17,17,18,18,20,20,21,21,22,22,24,24],"right_children":[2,-1,4,6,8,10,-1,12,14,16,-1,18,20,22,24,-1,-1,26,28,-1,30,32,34,-1,36,-1,-1,-1,-1,-1,-1,-1,-1,-1,-1,-1,-1],"split_conditions":[2.00001E0,-4.114886E0,2.00001E0,5.2E0,2.00001E0,4.13E0,6.7522607E0,2.6E0,2.00001E0,3.93E0,1.7608654E0,1.59E0,2.81E0,6.69E0,2.00001E0,1.0735846E0,-3.078747E-2,1.55E0,2.23E0,3.2491467E0,3.5E0,6.2E0,7.95E0,1.0461734E1,2.00001E0,-7.539952E-1,2.185269E0,-8.390952E-1,-1.1096731E0,-4.0465993E-1,7.735846E-1,-7.232275E-1,-2.7623818E0,-1.6309972E0,1.3539964E-1,-3.806044E0,6.626179E-3],"split_indices":[5442,0,11653,13220,11345,13220,0,13220,7252,13220,0,13220,13220,13220,10494,0,0,13220,13220,0,13220,13220,13220,0,12365,0,0,0,0,0,0,0,0,0,0,0,0],"split_type":[0,0,0,0,0,0,0,0,0,0,0,0,0,0,0,0,0,0,0,0,0,0,0,0,0,0,0,0,0,0,0,0,0,0,0,0,0],"sum_hessian":[7.3908E4,1.2E1,7.3896E4,1.1E1,7.3885E4,6E0,5E0,4.09E2,7.3476E4,2E0,4E0,3.91E2,1.8E1,5.8E1,7.3418E4,1E0,1E0,4.6E1,3.45E2,1.1E1,7E0,2.1E1,3.7E1,1E0,7.3417E4,4.2E1,4E0,2.57E2,8.8E1,6E0,1E0,4E0,1.7E1,3.6E1,1E0,1.4E1,7.3403E4],"tree_param":{"num_deleted":"0","num_feature":"13221","num_nodes":"37","size_leaf_vector":"1"}},{"base_weights":[4.601766E-4,-3.0716646E0,2.0539246E-3,-5.7806587E0,3.462978E-3,-3.5764525E0,-8.157137E-1,6.009429E0,2.6496432E-3,1.2265974E1,1.9854864E-3,4.384432E-1,9.520484E0,1.0405488E1,1.5159156E-3,5.2000375E0,3.4635802E-4],"categories":[],"categories_nodes":[],"categories_segments":[],"categories_sizes":[],"default_left":[0,0,0,0,0,0,0,0,0,0,0,0,0,0,0,0,0],"id":36,"left_children":[1,-1,3,5,7,-1,-1,-1,9,11,13,-1,-1,-1,15,-1,-1],"loss_changes":[6.030955E2,0E0,6.020625E2,6.2282715E0,6.0151996E2,0E0,0E0,0E0,6.0158905E2,1.5458154E2,6.0140173E2,0E0,0E0,0E0,6.0075244E2,0E0,0E0],"parents":[2147483647,0,0,2,2,3,3,4,4,8,8,9,9,10,10,14,14],"right_children":[2,-1,4,6,8,-1,-1,-1,10,12,14,-1,-1,-1,16,-1,-1],"split_conditions":[2.00001E0,-3.0716646E0,2.00001E0,8.98E0,2.00001E0,-3.5764525E0,-8.157137E-1,6.009429E0,2.00001E0,8.33E0,2.00001E0,4.384432E-1,9.520484E0,1.0405488E1,2.00001E0,5.2000375E0,3.4635802E-4],"split_indices":[408,0,3026,13220,4300,0,0,0,139,13220,11845,0,0,0,8872,0,0],"split_type":[0,0,0,0,0,0,0,0,0,0,0,0,0,0,0,0,0],"sum_hessian":[7.3908E4,2.2E1,7.3886E4,1.7E1,7.3869E4,1.6E1,1E0,5E0,7.3864E4,3E0,7.3861E4,1E0,2E0,1E0,7.386E4,7E0,7.3853E4],"tree_param":{"num_deleted":"0","num_feature":"13221","num_nodes":"17","size_leaf_vector":"1"}},{"base_weights":[5.0999824E-4,7.3419905E0,-1.5226292E-4,1.0363604E1,-6.1969407E-4,7.0508018E0,-1.7647997E-3,2.7102249E0,7.887842E0,1.0358604E1,-2.232103E-3,1.2195236E1,-2.8923769E-3,-2.511484E0,1.1430511E1,9.903273E-1,-4.6574324E-3],"categories":[],"categories_nodes":[],"categories_segments":[],"categories_sizes":[],"default_left":[0,0,0,0,0,0,0,0,0,0,0,0,0,0,0,0,0],"id":37,"left_children":[1,-1,3,-1,5,7,9,-1,-1,-1,11,13,15,-1,-1,-1,-1],"loss_changes":[5.989249E2,0E0,5.967171E2,0E0,5.9676746E2,1.2595465E2,5.962528E2,0E0,0E0,0E0,5.951451E2,5.289517E2,5.949942E2,0E0,0E0,0E0,0E0],"parents":[2147483647,0,0,2,2,4,4,5,5,6,6,10,10,11,11,12,12],"right_children":[2,-1,4,-1,6,8,10,-1,-1,-1,12,14,16,-1,-1,-1,-1],"split_conditions":[2.00001E0,7.3419905E0,2.00001E0,1.0363604E1,2.00001E0,2.58E0,2.00001E0,2.7102249E0,7.887842E0,1.0358604E1,2.00001E0,5.13E0,2.00001E0,-2.511484E0,1.1430511E1,9.903273E-1,-4.6574324E-3],"split_indices":[122,0,12530,0,5071,13220,10322,0,0,0,10341,13220,13118,0,0,0,0],"split_type":[0,0,0,0,0,0,0,0,0,0,0,0,0,0,0,0,0],"sum_hessian":[7.3908E4,3E0,7.3905E4,1E0,7.3904E4,1.1E1,7.3893E4,9E0,2E0,1E0,7.3892E4,3E0,7.3889E4,1E0,2E0,2.16E2,7.3673E4],"tree_param":{"num_deleted":"0","num_feature":"13221","num_nodes":"17","size_leaf_vector":"1"}},{"base_weights":[8.613343E-4,8.403017E0,2.9287176E-4,7.265441E0,-3.625108E-4,1.0780166E1,-1.0919056E-3,4.510397E-1,7.8596044E0,8.03057E0,-2.0701424E-3,1.5575612E0,5.527485E0,9.80969E0,-2.866879E-3,8.557898E0,3.6109927E-1,1.0185001E1,-1.995846E-3],"categories":[],"categories_nodes":[],"categories_segments":[],"categories_sizes":[],"default_left":[0,0,0,0,0,0,0,0,0,0,0,0,0,0,0,0,0,0,0],"id":38,"left_children":[1,-1,3,-1,5,7,9,-1,-1,11,13,-1,-1,15,17,-1,-1,-1,-1],"loss_changes":[5.8837396E2,0E0,5.865215E2,0E0,5.811383E2,1.0644122E2,5.80639E2,0E0,0E0,3.3893982E1,5.7767084E2,0E0,0E0,2.3745758E2,5.7651166E2,0E0,0E0,0E0,0E0],"parents":[2147483647,0,0,2,2,4,4,5,5,6,6,9,9,10,10,13,13,14,14],"right_children":[2,-1,4,-1,6,8,10,-1,-1,12,14,-1,-1,16,18,-1,-1,-1,-1],"split_conditions":[2.00001E0,8.403017E0,2.00001E0,7.265441E0,2.00001E0,4.8E0,2.00001E0,4.510397E-1,7.8596044E0,3.74E0,2.00001E0,1.5575612E0,5.527485E0,1.224E1,2.00001E0,8.557898E0,3.6109927E-1,1.0185001E1,-1.995846E-3],"split_indices":[2876,0,6593,0,11707,13220,10464,0,0,13220,12641,0,0,13220,5801,0,0,0,0],"split_type":[0,0,0,0,0,0,0,0,0,0,0,0,0,0,0,0,0,0,0],"sum_hessian":[7.3908E4,2E0,7.3906E4,3E0,7.3903E4,4E0,7.3899E4,1E0,3E0,8E0,7.3891E4,2E0,6E0,5E0,7.3886E4,3E0,2E0,1E0,7.3885E4],"tree_param":{"num_deleted":"0","num_feature":"13221","num_nodes":"19","size_leaf_vector":"1"}},{"base_weights":[1.0230193E-3,8.302775E0,4.6134277E-4,-5.107878E0,1.9823753E-3,-5.2918706E0,-3.4973302E0,4.6971955E0,3.2957428E-4,-2.225127E0,-7.1557746E0,3.6715887E0,6.801792E0,5.855521E0,-4.6323283E-4,-3.368746E0,5.787506E-1,5.6804028E0,2.6864061E0,4.7713737E0,-2.079002E-3,-4.774952E-1,-2.2822487E0,1.8959409E0,6.2410235E0,-3.2580054E-1,2.607816E0,1.1407124E0,3.760218E0,-2.8613117E0,-2.7863288E-4],"categories":[],"categories_nodes":[],"categories_segments":[],"categories_sizes":[],"default_left":[0,0,0,0,0,0,0,0,0,0,0,0,0,0,0,0,0,0,0,0,0,0,0,0,0,0,0,0,0,0,0],"id":39,"left_children":[1,-1,3,5,7,-1,9,11,13,15,-1,17,-1,-1,19,21,-1,23,25,27,29,-1,-1,-1,-1,-1,-1,-1,-1,-1,-1],"loss_changes":[5.7440564E2,0E0,5.742638E2,1.0067474E2,5.733725E2,0E0,1.5575941E2,1.3541516E2,5.7146E2,6.1614487E1,0E0,3.2237274E1,0E0,0E0,5.694534E2,1.0403564E1,0E0,5.043199E1,9.8852066E1,9.540552E1,5.682457E2,0E0,0E0,0E0,0E0,0E0,0E0,0E0,0E0,0E0,0E0],"parents":[2147483647,0,0,2,2,3,3,4,4,6,6,7,7,8,8,9,9,11,11,14,14,15,15,17,17,18,18,19,19,20,20],"right_children":[2,-1,4,6,8,-1,10,12,14,16,-1,18,-1,-1,20,22,-1,24,26,28,30,-1,-1,-1,-1,-1,-1,-1,-1,-1,-1],"split_conditions":[2.00001E0,8.302775E0,2.00001E0,1.063E1,2.00001E0,-5.2918706E0,1.286E1,5.06E0,2.00001E0,1.255E1,-7.1557746E0,4.03E0,6.801792E0,5.855521E0,2.00001E0,1.113E1,5.787506E-1,3.99E0,4.23E0,2.97E0,2.00001E0,-4.774952E-1,-2.2822487E0,1.8959409E0,6.2410235E0,-3.2580054E-1,2.607816E0,1.1407124E0,3.760218E0,-2.8613117E0,-2.7863288E-4],"split_indices":[10037,0,10215,13220,2788,0,13220,13220,8332,13220,0,13220,0,0,10066,13220,0,13220,13220,13220,11281,0,0,0,0,0,0,0,0,0,0],"split_type":[0,0,0,0,0,0,0,0,0,0,0,0,0,0,0,0,0,0,0,0,0,0,0,0,0,0,0,0,0,0,0],"sum_hessian":[7.3908E4,2E0,7.3906E4,2.1E1,7.3885E4,5E0,1.6E1,2.5E1,7.386E4,1.5E1,1E0,2.3E1,2E0,5E0,7.3855E4,1.1E1,4E0,6E0,1.7E1,2.4E1,7.3831E4,2E0,9E0,5E0,1E0,6E0,1.1E1,9E0,1.5E1,2.4E1,7.3807E4],"tree_param":{"num_deleted":"0","num_feature":"13221","num_nodes":"31","size_leaf_vector":"1"}},{"base_weights":[6.632824E-4,1.0107464E1,2.074335E-4,5.8348703E0,-5.8208336E-4,1.00706835E1,-1.0363272E-3,-5.8067403E0,-2.5060898E-4,-2.0023954E0,3.5496638E-3,-1.2709794E0,4.232464E0,-6.3512473E0,2.5604835E-3],"categories":[],"categories_nodes":[],"categories_segments":[],"categories_sizes":[],"default_left":[0,0,0,0,0,0,0,0,0,0,0,0,0,0,0],"id":40,"left_children":[1,-1,3,-1,5,-1,7,-1,9,11,13,-1,-1,-1,-1],"loss_changes":[5.675307E2,0E0,5.674504E2,0E0,5.634913E2,0E0,5.6189575E2,0E0,5.6226697E2,1.6189813E2,5.606685E2,0E0,0E0,0E0,0E0],"parents":[2147483647,0,0,2,2,4,4,6,6,8,8,9,9,10,10],"right_children":[2,-1,4,-1,6,-1,8,-1,10,12,14,-1,-1,-1,-1],"split_conditions":[2.00001E0,1.0107464E1,2.00001E0,5.8348703E0,2.00001E0,1.00706835E1,2.00001E0,-5.8067403E0,2.00001E0,3.42E0,2.00001E0,-1.2709794E0,4.232464E0,-6.3512473E0,2.5604835E-3],"split_indices":[10387,0,1983,0,6952,0,7140,0,12882,13220,4712,0,0,0,0],"split_type":[0,0,0,0,0,0,0,0,0,0,0,0,0,0,0],"sum_hessian":[7.3908E4,1E0,7.3907E4,5E0,7.3902E4,1E0,7.3901E4,5E0,7.3896E4,1.39E2,7.3757E4,1.38E2,1E0,4E0,7.3753E4],"tree_param":{"num_deleted":"0","num_feature":"13221","num_nodes":"15","size_leaf_vector":"1"}},{"base_weights":[4.9320835E-4,8.186201E0,-6.0595976E-5,8.175036E0,-6.13675E-4,9.634156E0,-1.3959213E-3,6.56607E0,9.263054E-1,7.450713E0,-2.4044297E-3,5.0908E0,-5.564587E-1,4.256081E0,-3.460888E-3,4.46012E0,-2.6805492E-3],"categories":[],"categories_nodes":[],"categories_segments":[],"categories_sizes":[],"default_left":[0,0,0,0,0,0,0,0,0,0,0,0,0,0,0,0,0],"id":41,"left_children":[1,-1,3,-1,5,7,9,-1,-1,11,13,-1,-1,-1,15,-1,-1],"loss_changes":[5.584313E2,0E0,5.569544E2,0E0,5.5701794E2,4.6660645E1,5.554144E2,0E0,0E0,9.4495056E1,5.5394794E2,0E0,0E0,0E0,5.5316376E2,0E0,0E0],"parents":[2147483647,0,0,2,2,4,4,5,5,6,6,9,9,10,10,14,14],"right_children":[2,-1,4,-1,6,8,10,-1,-1,12,14,-1,-1,-1,16,-1,-1],"split_conditions":[2.00001E0,8.186201E0,2.00001E0,8.175036E0,2.00001E0,1.588E1,2.00001E0,6.56607E0,9.263054E-1,8.07E0,2.00001E0,5.0908E0,-5.564587E-1,4.256081E0,2.00001E0,4.46012E0,-2.6805492E-3],"split_indices":[11927,0,10590,0,9053,13220,3705,0,0,13220,4689,0,0,0,10766,0,0],"split_type":[0,0,0,0,0,0,0,0,0,0,0,0,0,0,0,0,0],"sum_hessian":[7.3908E4,2E0,7.3906E4,2E0,7.3904E4,5E0,7.3899E4,4E0,1E0,9E0,7.389E4,8E0,1E0,1E1,7.388E4,9E0,7.3871E4],"tree_param":{"num_deleted":"0","num_feature":"13221","num_nodes":"17","size_leaf_vector":"1"}},{"base_weights":[6.992202E-4,5.5335426E0,-6.48583E-4,7.2983146E0,-3.4338539E0,-6.0510917E0,5.798923E-4,4.928571E0,2.6415896E0,-8.816519E-1,-7.269981E0,-2.1247668E0,4.0665157E-3,-8.9040416E-1,-1.8619792E-1,-4.7158885E0,-2.3454553E-1,-3.1934765E-1,-2.2845402E0,-8.8348465E0,4.9053854E-3,6.6127855E-1,-8.288567E-1,-7.1891534E-1,5.596247E-1,-2.1351645E0,-2.7256534E0,-5.9225593E0,-7.855019E-1,-5.724962E0,5.682016E-3,-1.4454938E-2,-1.1213547E0,6.2218326E-1,3.291092E-2,-1.3466172E0,2.7991695E0,-3.8848236E0,4.0946864E-3],"categories":[],"categories_nodes":[],"categories_segments":[],"categories_sizes":[],"default_left":[0,0,0,0,0,0,0,0,0,0,0,0,0,0,0,0,0,0,0,0,0,0,0,0,0,0,0,0,0,0,0,0,0,0,0,0,0,0,0],"id":42,"left_children":[1,3,5,7,-1,9,11,-1,-1,13,15,17,19,-1,21,-1,-1,23,25,27,29,-1,-1,31,33,35,-1,-1,-1,-1,37,-1,-1,-1,-1,-1,-1,-1,-1],"loss_changes":[5.511566E2,3.9934595E2,5.4922943E2,6.272888E0,0E0,8.81051E1,5.4746564E2,0E0,0E0,1.399322E0,4.5617493E1,3.417383E1,5.469366E2,0E0,6.142061E0,0E0,0E0,4.265621E0,2.7743286E1,4.1657898E1,5.4685944E2,0E0,0E0,6.3474045E0,9.0692914E-1,8.918524E1,0E0,0E0,0E0,0E0,5.4603674E2,0E0,0E0,0E0,0E0,0E0,0E0,0E0,0E0],"parents":[2147483647,0,0,1,1,2,2,3,3,5,5,6,6,9,9,10,10,11,11,12,12,14,14,17,17,18,18,19,19,20,20,23,23,24,24,25,25,30,30],"right_children":[2,4,6,8,-1,10,12,-1,-1,14,16,18,20,-1,22,-1,-1,24,26,28,30,-1,-1,32,34,36,-1,-1,-1,-1,38,-1,-1,-1,-1,-1,-1,-1,-1],"split_conditions":[2.00001E0,7.84E0,2.00001E0,6.3E0,-3.4338539E0,3.99E0,2.00001E0,4.928571E0,2.6415896E0,2.97E0,5.2E0,2.28E0,2.00001E0,-8.9040416E-1,3.13E0,-4.7158885E0,-2.3454553E-1,2.19E0,3.61E0,8.98E0,2.00001E0,6.6127855E-1,-8.288567E-1,2.08E0,2.25E0,3.53E0,-2.7256534E0,-5.9225593E0,-7.855019E-1,-5.724962E0,2.00001E0,-1.4454938E-2,-1.1213547E0,6.2218326E-1,3.291092E-2,-1.3466172E0,2.7991695E0,-3.8848236E0,4.0946864E-3],"split_indices":[9027,13220,2866,13220,0,13220,7159,0,0,13220,13220,13220,10196,0,13220,0,0,13220,13220,13220,7216,0,0,13220,13220,13220,0,0,0,0,13007,0,0,0,0,0,0,0,0],"split_type":[0,0,0,0,0,0,0,0,0,0,0,0,0,0,0,0,0,0,0,0,0,0,0,0,0,0,0,0,0,0,0,0,0,0,0,0,0,0,0],"sum_hessian":[7.3908E4,1.7E1,7.3891E4,1.5E1,2E0,1.4E1,7.3877E4,1E1,5E0,3E0,1.1E1,1.2E2,7.3757E4,1E0,2E0,1E1,1E0,1E1,1.1E2,6E0,7.3751E4,1E0,1E0,7E0,3E0,1.05E2,5E0,5E0,1E0,5E0,7.3746E4,5E0,2E0,1E0,2E0,1.04E2,1E0,1.2E1,7.3734E4],"tree_param":{"num_deleted":"0","num_feature":"13221","num_nodes":"39","size_leaf_vector":"1"}},{"base_weights":[9.795296E-6,5.297212E0,-8.2644605E-4,9.882577E0,-1.2722086E-3,9.882577E0,-1.7179833E-3,8.063898E0,-2.2636324E-3,8.771655E0,-3.0947689E-3,-3.9382336E0,9.731131E0,-4.200165E0,-1.2317752E-3],"categories":[],"categories_nodes":[],"categories_segments":[],"categories_sizes":[],"default_left":[0,0,0,0,0,0,0,0,0,0,0,0,0,0,0],"id":43,"left_children":[1,-1,3,-1,5,-1,7,-1,9,11,13,-1,-1,-1,-1],"loss_changes":[5.456704E2,0E0,5.4265424E2,0E0,5.426836E2,0E0,5.4204755E2,0E0,5.3892255E2,9.058607E2,5.3864594E2,0E0,0E0,0E0,0E0],"parents":[2147483647,0,0,2,2,4,4,6,6,8,8,9,9,10,10],"right_children":[2,-1,4,-1,6,-1,8,-1,10,12,14,-1,-1,-1,-1],"split_conditions":[2.00001E0,5.297212E0,2.00001E0,9.882577E0,2.00001E0,9.882577E0,2.00001E0,8.063898E0,2.00001E0,5.33E0,2.00001E0,-3.9382336E0,9.731131E0,-4.200165E0,-1.2317752E-3],"split_indices":[8637,0,2,0,144,0,2484,0,940,13220,5449,0,0,0,0],"split_type":[0,0,0,0,0,0,0,0,0,0,0,0,0,0,0],"sum_hessian":[7.3908E4,6E0,7.3902E4,1E0,7.3901E4,1E0,7.39E4,2E0,7.3898E4,6E0,7.3892E4,2E0,4E0,1E1,7.3882E4],"tree_param":{"num_deleted":"0","num_feature":"13221","num_nodes":"15","size_leaf_vector":"1"}},{"base_weights":[4.7392375E-4,-5.802985E0,1.7305192E-3,-3.2949295E0,-4.432555E0,-4.923691E0,2.6191915E-3,-3.5372062E0,-1.4455677E0,-6.190627E0,3.7928498E-3,4.395956E-1,-2.027745E0,-3.8003054E-1,-3.9416316E0,1.0325625E1,3.09415E-3,-1.8138726E0,-2.1387254E-1,7.076229E0,1.335981E0,6.65982E0,2.0125783E-3,4.4788795E0,-6.5848505E-1,7.977262E0,8.8355097E-4],"categories":[],"categories_nodes":[],"categories_segments":[],"categories_sizes":[],"default_left":[0,0,0,0,0,0,0,0,0,0,0,0,0,0,0,0,0,0,0,0,0,0,0,0,0,0,0],"id":44,"left_children":[1,3,5,7,-1,-1,9,-1,11,13,15,-1,17,-1,-1,19,21,-1,-1,-1,-1,23,25,-1,-1,-1,-1],"loss_changes":[5.389989E2,3.9246887E1,5.390129E2,2.9950714E1,0E0,0E0,5.3708997E2,0E0,9.094333E0,2.5307007E1,5.327372E2,0E0,7.2402077E0,0E0,0E0,3.318994E1,5.318303E2,0E0,0E0,0E0,0E0,8.312598E1,5.301669E2,0E0,0E0,0E0,0E0],"parents":[2147483647,0,0,1,1,2,2,3,3,6,6,8,8,9,9,10,10,12,12,15,15,16,16,21,21,22,22],"right_children":[2,4,6,8,-1,-1,10,-1,12,14,16,-1,18,-1,-1,20,22,-1,-1,-1,-1,24,26,-1,-1,-1,-1],"split_conditions":[2.00001E0,8.49E0,2.00001E0,7.84E0,-4.432555E0,-4.923691E0,2.00001E0,-3.5372062E0,7.95E0,1.5E0,2.00001E0,4.395956E-1,8.33E0,-3.8003054E-1,-3.9416316E0,6.3E0,2.00001E0,-1.8138726E0,-2.1387254E-1,7.076229E0,1.335981E0,4.18E0,2.00001E0,4.4788795E0,-6.5848505E-1,7.977262E0,8.8355097E-4],"split_indices":[12906,13220,196,13220,0,0,5270,0,13220,13220,12116,0,13220,0,0,13220,6117,0,0,0,0,13220,11208,0,0,0,0],"split_type":[0,0,0,0,0,0,0,0,0,0,0,0,0,0,0,0,0,0,0,0,0,0,0,0,0,0,0],"sum_hessian":[7.3908E4,1.5E1,7.3893E4,7E0,8E0,7E0,7.3886E4,2E0,5E0,1.3E1,7.3873E4,1E0,4E0,1E0,1.2E1,4E0,7.3869E4,2E0,2E0,3E0,1E0,1.1E1,7.3858E4,1E1,1E0,2E0,7.3856E4],"tree_param":{"num_deleted":"0","num_feature":"13221","num_nodes":"27","size_leaf_vector":"1"}},{"base_weights":[2.0877607E-4,6.9064674E0,-4.1421107E-4,9.739331E0,-8.534892E-4,8.672311E0,-1.6750335E-3,6.0381985E0,9.725876E-2,-5.1978116E0,-8.54508E-4,7.6306562E0,-1.7840978E-3,-1.0126454E0,5.4038544E0,4.57825E0,-1.6283159E-3],"categories":[],"categories_nodes":[],"categories_segments":[],"categories_sizes":[],"default_left":[0,0,0,0,0,0,0,0,0,0,0,0,0,0,0,0,0],"id":45,"left_children":[1,-1,3,-1,5,7,9,-1,-1,-1,11,13,15,-1,-1,-1,-1],"loss_changes":[5.300015E2,0E0,5.270109E2,0E0,5.2661633E2,8.125366E1,5.2518195E2,0E0,0E0,0E0,5.2422345E2,1.3058008E2,5.2431824E2,0E0,0E0,0E0,0E0],"parents":[2147483647,0,0,2,2,4,4,5,5,6,6,10,10,11,11,12,12],"right_children":[2,-1,4,-1,6,8,10,-1,-1,-1,12,14,16,-1,-1,-1,-1],"split_conditions":[2.00001E0,6.9064674E0,2.00001E0,9.739331E0,2.00001E0,1.417E1,2.00001E0,6.0381985E0,9.725876E-2,-5.1978116E0,2.00001E0,6.69E0,2.00001E0,-1.0126454E0,5.4038544E0,4.57825E0,-1.6283159E-3],"split_indices":[10068,0,795,0,11637,13220,12132,0,0,0,11489,13220,10997,0,0,0,0],"split_type":[0,0,0,0,0,0,0,0,0,0,0,0,0,0,0,0,0],"sum_hessian":[7.3908E4,3E0,7.3905E4,1E0,7.3904E4,6E0,7.3898E4,5E0,1E0,6E0,7.3892E4,8E0,7.3884E4,1E0,7E0,8E0,7.3876E4],"tree_param":{"num_deleted":"0","num_feature":"13221","num_nodes":"17","size_leaf_vector":"1"}},{"base_weights":[4.4291967E-4,6.8558097E0,-1.7548839E-4,9.692844E0,-6.126666E-4,2.505419E0,-3.430217E-3,2.374367E0,3.9755082E0,8.068767E0,-4.305016E-3,2.5432055E0,-1.75167E0,6.7983723E0,1.1845546E0,4.093819E0,-6.0267183E-3,3.8100624E0,1.4487816E0,1.6975116E0,3.15249E0,6.8372006E0,-3.9868434E-3],"categories":[],"categories_nodes":[],"categories_segments":[],"categories_sizes":[],"default_left":[0,0,0,0,0,0,0,0,0,0,0,0,0,0,0,0,0,0,0,0,0,0,0],"id":46,"left_children":[1,-1,3,-1,5,7,9,11,-1,13,15,17,-1,-1,-1,19,21,-1,-1,-1,-1,-1,-1],"loss_changes":[5.222335E2,0E0,5.2197675E2,0E0,5.218422E2,2.9087036E1,5.213393E2,8.071643E1,0E0,1.3666559E2,5.20852E2,2.3822937E1,0E0,0E0,0E0,3.0624207E1,5.1999225E2,0E0,0E0,0E0,0E0,0E0,0E0],"parents":[2147483647,0,0,2,2,4,4,5,5,6,6,7,7,9,9,10,10,11,11,15,15,16,16],"right_children":[2,-1,4,-1,6,8,10,12,-1,14,16,18,-1,-1,-1,20,22,-1,-1,-1,-1,-1,-1],"split_conditions":[2.00001E0,6.8558097E0,2.00001E0,9.692844E0,2.00001E0,3.45E0,2.00001E0,2.97E0,3.9755082E0,4.56E0,2.00001E0,3.5E-1,-1.75167E0,6.7983723E0,1.1845546E0,3.7E0,2.00001E0,3.8100624E0,1.4487816E0,1.6975116E0,3.15249E0,6.8372006E0,-3.9868434E-3],"split_indices":[5042,0,662,0,10718,13220,7567,13220,0,13220,13111,13220,0,0,0,13220,6272,0,0,0,0,0,0],"split_type":[0,0,0,0,0,0,0,0,0,0,0,0,0,0,0,0,0,0,0,0,0,0,0],"sum_hessian":[7.3908E4,3E0,7.3905E4,1E0,7.3904E4,8.2E1,7.3822E4,8.1E1,1E0,7E0,7.3815E4,7.9E1,2E0,4E0,3E0,3E1,7.3785E4,1E0,7.8E1,1.6E1,1.4E1,3E0,7.3782E4],"tree_param":{"num_deleted":"0","num_feature":"13221","num_nodes":"23","size_leaf_vector":"1"}},{"base_weights":[7.683085E-4,-4.8311977E0,1.6400217E-3,-6.30774E0,2.7500542E-3,-4.595859E0,-8.055094E0,5.863526E0,1.5600278E-3,-9.152375E-1,-3.0344474E0,4.262502E0,2.0584595E0,6.811523E0,9.453855E-4,8.027505E0,7.606233E-5,2.075517E0,1.2001704E1,5.5501795E0,-4.0522096E-4],"categories":[],"categories_nodes":[],"categories_segments":[],"categories_sizes":[],"default_left":[0,0,0,0,0,0,0,0,0,0,0,0,0,0,0,0,0,0,0,0,0],"id":47,"left_children":[1,-1,3,5,7,9,-1,11,13,-1,-1,-1,-1,-1,15,17,19,-1,-1,-1,-1],"loss_changes":[5.188323E2,0E0,5.175987E2,9.669403E1,5.15335E2,9.291641E0,0E0,2.0900085E1,5.1540674E2,0E0,0E0,0E0,0E0,0E0,5.154611E2,3.684627E2,5.134414E2,0E0,0E0,0E0,0E0],"parents":[2147483647,0,0,2,2,3,3,4,4,5,5,7,7,8,8,14,14,15,15,16,16],"right_children":[2,-1,4,6,8,10,-1,12,14,-1,-1,-1,-1,-1,16,18,20,-1,-1,-1,-1],"split_conditions":[2.00001E0,-4.8311977E0,2.00001E0,3.79E0,2.00001E0,1.19E0,-8.055094E0,3.99E0,2.00001E0,-9.152375E-1,-3.0344474E0,4.262502E0,2.0584595E0,6.811523E0,2.00001E0,1.36E0,2.00001E0,2.075517E0,1.2001704E1,5.5501795E0,-4.0522096E-4],"split_indices":[12884,0,5396,13220,6081,13220,0,13220,2410,0,0,0,0,0,1447,13220,4323,0,0,0,0],"split_type":[0,0,0,0,0,0,0,0,0,0,0,0,0,0,0,0,0,0,0,0,0],"sum_hessian":[7.3908E4,7E0,7.3901E4,1.2E1,7.3889E4,1.1E1,1E0,1.4E1,7.3875E4,2E0,9E0,8E0,6E0,3E0,7.3872E4,7E0,7.3865E4,6E0,1E0,5E0,7.386E4],"tree_param":{"num_deleted":"0","num_feature":"13221","num_nodes":"21","size_leaf_vector":"1"}},{"base_weights":[5.2240415E-4,-4.7937007E0,1.3873288E-3,4.79376E0,5.224925E-4,4.814522E0,-9.111446E-4,6.1034455E0,-7.8850806E-1,1.0090111E1,-1.594158E-3,6.598489E0,2.7211714E0,-2.1350946E0,2.244311E0,7.169604E-1,7.2091036E0,1.0061352E1,-2.2752986E-3,2.268366E0,4.577621E0,2.957203E-1,2.8218253E0,1.5243989E-1,1.8674401E0,6.970204E0,1.1516201E0,6.030657E0,-1.7734914E-3],"categories":[],"categories_nodes":[],"categories_segments":[],"categories_sizes":[],"default_left":[0,0,0,0,0,0,0,0,0,0,0,0,0,0,0,0,0,0,0,0,0,0,0,0,0,0,0,0,0],"id":48,"left_children":[1,-1,3,-1,5,7,9,11,13,15,17,19,21,-1,23,-1,-1,25,27,-1,-1,-1,-1,-1,-1,-1,-1,-1,-1],"loss_changes":[5.1077905E2,0E0,5.1054745E2,0E0,5.0999283E2,1.6369391E2,5.0917807E2,1.2183044E1,4.9990646E1,7.1261475E1,5.063487E2,1.4729736E1,1.534687E1,0E0,4.392371E0,0E0,0E0,4.1033264E1,5.0538538E2,0E0,0E0,0E0,0E0,0E0,0E0,0E0,0E0,0E0,0E0],"parents":[2147483647,0,0,2,2,4,4,5,5,6,6,7,7,8,8,9,9,10,10,11,11,12,12,14,14,17,17,18,18],"right_children":[2,-1,4,-1,6,8,10,12,14,16,18,20,22,-1,24,-1,-1,26,28,-1,-1,-1,-1,-1,-1,-1,-1,-1,-1],"split_conditions":[2.00001E0,-4.7937007E0,2.00001E0,4.79376E0,2.00001E0,4.03E0,2.00001E0,3.74E0,4.33E0,3.24E0,2.00001E0,3.24E0,3.84E0,-2.1350946E0,4.74E0,7.169604E-1,7.2091036E0,6.11E0,2.00001E0,2.268366E0,4.577621E0,2.957203E-1,2.8218253E0,1.5243989E-1,1.8674401E0,6.970204E0,1.1516201E0,6.030657E0,-1.7734914E-3],"split_indices":[11372,0,11304,0,10767,13220,9047,13220,13220,13220,3939,13220,13220,0,13220,0,0,13220,3495,0,0,0,0,0,0,0,0,0,0],"split_type":[0,0,0,0,0,0,0,0,0,0,0,0,0,0,0,0,0,0,0,0,0,0,0,0,0,0,0,0,0],"sum_hessian":[7.3908E4,7E0,7.3901E4,7E0,7.3894E4,2.1E1,7.3873E4,1.7E1,4E0,4E0,7.3869E4,1.4E1,3E0,2E0,2E0,1E0,3E0,4E0,7.3865E4,5E0,9E0,2E0,1E0,1E0,1E0,3E0,1E0,4E0,7.3861E4],"tree_param":{"num_deleted":"0","num_feature":"13221","num_nodes":"29","size_leaf_vector":"1"}},{"base_weights":[6.411595E-4,1.0041815E1,-3.8179038E-5,2.2104275E0,8.715559E0,6.7307615E0,-6.453596E-4,3.9469245E-1,1.5946925E0,1.1215912E1,-1.25248E-3,8.078284E0,1.3416687E0,-4.7566867E0,-3.9428528E-4,-5.785061E0,7.802239E-4,-4.683844E0,-2.3962483E0,-4.751323E0,9.827323E-4],"categories":[],"categories_nodes":[],"categories_segments":[],"categories_sizes":[],"default_left":[0,0,0,0,0,0,0,0,0,0,0,0,0,0,0,0,0,0,0,0,0],"id":49,"left_children":[1,3,5,7,-1,-1,9,-1,-1,11,13,-1,-1,-1,15,17,19,-1,-1,-1,-1],"loss_changes":[5.0416E2,1.4347568E2,5.0339902E2,3.3550835E-1,0E0,0E0,5.0327185E2,0E0,0E0,5.0635925E1,5.02697E2,0E0,0E0,0E0,5.020374E2,2.313617E1,5.0182138E2,0E0,0E0,0E0,0E0],"parents":[2147483647,0,0,1,1,2,2,3,3,6,6,9,9,10,10,14,14,15,15,16,16],"right_children":[2,4,6,8,-1,-1,10,-1,-1,12,14,-1,-1,-1,16,18,20,-1,-1,-1,-1],"split_conditions":[2.00001E0,6.58E0,2.00001E0,6.49E0,8.715559E0,6.7307615E0,2.00001E0,3.9469245E-1,1.5946925E0,6.03E0,2.00001E0,8.078284E0,1.3416687E0,-4.7566867E0,2.00001E0,3.42E0,2.00001E0,-4.683844E0,-2.3962483E0,-4.751323E0,9.827323E-4],"split_indices":[1037,13220,12604,13220,0,0,11080,0,0,13220,7255,0,0,0,9946,13220,5428,0,0,0,0],"split_type":[0,0,0,0,0,0,0,0,0,0,0,0,0,0,0,0,0,0,0,0,0],"sum_hessian":[7.3908E4,4E0,7.3904E4,2E0,2E0,3E0,7.3901E4,1E0,1E0,3E0,7.3898E4,2E0,1E0,7E0,7.3891E4,1.4E1,7.3877E4,5E0,9E0,7E0,7.387E4],"tree_param":{"num_deleted":"0","num_feature":"13221","num_nodes":"21","size_leaf_vector":"1"}}]},"name":"gbtree"},"learner_model_param":{"base_score":"1.685258E1","boost_from_average":"1","num_class":"0","num_feature":"13221","num_target":"1"},"objective":{"name":"reg:squarederror","reg_loss_param":{"scale_pos_weight":"1"}}},"version":[3,0,5]}